digraph Tree {
node [shape=box] ;
0 [label="X[1922] <= 0.0205\ngini = 0.5\nsamples = 15820\nvalue = [7884, 7936]"] ;
1 [label="X[2029] <= 0.0131\ngini = 0.4749\nsamples = 12672\nvalue = [4917, 7755]"] ;
0 -> 1 [labeldistance=2.5, labelangle=45, headlabel="True"] ;
2 [label="X[3318] <= 0.0079\ngini = 0.4434\nsamples = 11597\nvalue = [3847, 7750]"] ;
1 -> 2 ;
3 [label="X[2984] <= 0.0246\ngini = 0.4153\nsamples = 10975\nvalue = [3229, 7746]"] ;
2 -> 3 ;
4 [label="X[588] <= 0.0483\ngini = 0.3762\nsamples = 10108\nvalue = [2539, 7569]"] ;
3 -> 4 ;
5 [label="X[3406] <= 0.0104\ngini = 0.3442\nsamples = 9588\nvalue = [2118, 7470]"] ;
4 -> 5 ;
6 [label="X[1137] <= 0.085\ngini = 0.3242\nsamples = 9361\nvalue = [1905, 7456]"] ;
5 -> 6 ;
7 [label="X[3319] <= 0.0097\ngini = 0.3048\nsamples = 9117\nvalue = [1710, 7407]"] ;
6 -> 7 ;
8 [label="X[3422] <= 0.0089\ngini = 0.2918\nsamples = 9004\nvalue = [1597, 7407]"] ;
7 -> 8 ;
9 [label="X[2229] <= 0.0065\ngini = 0.2785\nsamples = 8894\nvalue = [1487, 7407]"] ;
8 -> 9 ;
10 [label="X[715] <= 0.0784\ngini = 0.261\nsamples = 8683\nvalue = [1340, 7343]"] ;
9 -> 10 ;
11 [label="X[3503] <= 0.0382\ngini = 0.2416\nsamples = 8438\nvalue = [1186, 7252]"] ;
10 -> 11 ;
12 [label="X[3531] <= 0.0253\ngini = 0.234\nsamples = 8387\nvalue = [1135, 7252]"] ;
11 -> 12 ;
13 [label="X[3471] <= 0.0922\ngini = 0.2126\nsamples = 8006\nvalue = [968, 7038]"] ;
12 -> 13 ;
14 [label="X[1399] <= 0.0867\ngini = 0.1887\nsamples = 7592\nvalue = [801, 6791]"] ;
13 -> 14 ;
15 [label="X[3066] <= 0.0514\ngini = 0.1812\nsamples = 7542\nvalue = [760, 6782]"] ;
14 -> 15 ;
16 [label="X[1196] <= 0.09\ngini = 0.1759\nsamples = 7514\nvalue = [732, 6782]"] ;
15 -> 16 ;
17 [label="X[2194] <= 0.0362\ngini = 0.17\nsamples = 7482\nvalue = [702, 6780]"] ;
16 -> 17 ;
18 [label="X[3222] <= 0.0476\ngini = 0.1653\nsamples = 7458\nvalue = [678, 6780]"] ;
17 -> 18 ;
19 [label="X[2658] <= 0.0932\ngini = 0.1603\nsamples = 7432\nvalue = [653, 6779]"] ;
18 -> 19 ;
20 [label="X[1276] <= 0.0275\ngini = 0.1509\nsamples = 7345\nvalue = [604, 6741]"] ;
19 -> 20 ;
21 [label="X[3536] <= 0.0896\ngini = 0.1442\nsamples = 7301\nvalue = [571, 6730]"] ;
20 -> 21 ;
22 [label="X[885] <= 0.0577\ngini = 0.1391\nsamples = 7271\nvalue = [547, 6724]"] ;
21 -> 22 ;
23 [label="X[1285] <= 0.0246\ngini = 0.135\nsamples = 7251\nvalue = [528, 6723]"] ;
22 -> 23 ;
24 [label="X[1821] <= 0.0516\ngini = 0.1299\nsamples = 7219\nvalue = [504, 6715]"] ;
23 -> 24 ;
25 [label="X[3119] <= 0.0859\ngini = 0.1261\nsamples = 7202\nvalue = [487, 6715]"] ;
24 -> 25 ;
26 [label="X[3215] <= 0.0671\ngini = 0.1225\nsamples = 7186\nvalue = [471, 6715]"] ;
25 -> 26 ;
27 [label="X[1369] <= 0.155\ngini = 0.1193\nsamples = 7172\nvalue = [457, 6715]"] ;
26 -> 27 ;
28 [label="X[3424] <= 0.0411\ngini = 0.1161\nsamples = 7158\nvalue = [443, 6715]"] ;
27 -> 28 ;
29 [label="X[963] <= 0.0552\ngini = 0.1129\nsamples = 7144\nvalue = [429, 6715]"] ;
28 -> 29 ;
30 [label="X[3427] <= 0.0151\ngini = 0.1099\nsamples = 7131\nvalue = [416, 6715]"] ;
29 -> 30 ;
31 [label="X[1961] <= 0.0947\ngini = 0.1027\nsamples = 7055\nvalue = [383, 6672]"] ;
30 -> 31 ;
32 [label="X[3623] <= 0.154\ngini = 0.0998\nsamples = 7041\nvalue = [371, 6670]"] ;
31 -> 32 ;
33 [label="X[956] <= 0.1907\ngini = 0.0974\nsamples = 7031\nvalue = [361, 6670]"] ;
32 -> 33 ;
34 [label="X[2519] <= 0.0506\ngini = 0.095\nsamples = 7021\nvalue = [351, 6670]"] ;
33 -> 34 ;
35 [label="X[2140] <= 0.1651\ngini = 0.0925\nsamples = 7011\nvalue = [341, 6670]"] ;
34 -> 35 ;
36 [label="X[2903] <= 0.0444\ngini = 0.0892\nsamples = 6991\nvalue = [327, 6664]"] ;
35 -> 36 ;
37 [label="X[2937] <= 0.0546\ngini = 0.0862\nsamples = 6975\nvalue = [315, 6660]"] ;
36 -> 37 ;
38 [label="X[1134] <= 0.195\ngini = 0.0842\nsamples = 6967\nvalue = [307, 6660]"] ;
37 -> 38 ;
39 [label="X[1812] <= 0.1789\ngini = 0.0815\nsamples = 6951\nvalue = [296, 6655]"] ;
38 -> 39 ;
40 [label="X[3032] <= 0.1795\ngini = 0.0795\nsamples = 6942\nvalue = [288, 6654]"] ;
39 -> 40 ;
41 [label="X[3300] <= 0.2103\ngini = 0.0778\nsamples = 6935\nvalue = [281, 6654]"] ;
40 -> 41 ;
42 [label="X[3366] <= 0.0818\ngini = 0.076\nsamples = 6928\nvalue = [274, 6654]"] ;
41 -> 42 ;
43 [label="X[3084] <= 0.1248\ngini = 0.0742\nsamples = 6921\nvalue = [267, 6654]"] ;
42 -> 43 ;
44 [label="X[3332] <= 0.0152\ngini = 0.0726\nsamples = 6915\nvalue = [261, 6654]"] ;
43 -> 44 ;
45 [label="X[1633] <= 0.2745\ngini = 0.0711\nsamples = 6909\nvalue = [255, 6654]"] ;
44 -> 45 ;
46 [label="X[672] <= 0.0401\ngini = 0.0695\nsamples = 6903\nvalue = [249, 6654]"] ;
45 -> 46 ;
47 [label="X[3134] <= 0.062\ngini = 0.068\nsamples = 6897\nvalue = [243, 6654]"] ;
46 -> 47 ;
48 [label="X[2819] <= 0.156\ngini = 0.0664\nsamples = 6891\nvalue = [237, 6654]"] ;
47 -> 48 ;
49 [label="X[1634] <= 0.0212\ngini = 0.0649\nsamples = 6885\nvalue = [231, 6654]"] ;
48 -> 49 ;
50 [label="X[3048] <= 0.0179\ngini = 0.0633\nsamples = 6878\nvalue = [225, 6653]"] ;
49 -> 50 ;
51 [label="X[3401] <= 0.0929\ngini = 0.0617\nsamples = 6871\nvalue = [219, 6652]"] ;
50 -> 51 ;
52 [label="X[928] <= 0.1526\ngini = 0.0604\nsamples = 6866\nvalue = [214, 6652]"] ;
51 -> 52 ;
53 [label="X[726] <= 0.1104\ngini = 0.0591\nsamples = 6861\nvalue = [209, 6652]"] ;
52 -> 53 ;
54 [label="X[679] <= 0.117\ngini = 0.0575\nsamples = 6853\nvalue = [203, 6650]"] ;
53 -> 54 ;
55 [label="X[2205] <= 0.1094\ngini = 0.0559\nsamples = 6845\nvalue = [197, 6648]"] ;
54 -> 55 ;
56 [label="X[1653] <= 0.0515\ngini = 0.0546\nsamples = 6839\nvalue = [192, 6647]"] ;
55 -> 56 ;
57 [label="X[3365] <= 0.1203\ngini = 0.0532\nsamples = 6833\nvalue = [187, 6646]"] ;
56 -> 57 ;
58 [label="X[140] <= 0.0874\ngini = 0.0519\nsamples = 6827\nvalue = [182, 6645]"] ;
57 -> 58 ;
59 [label="X[570] <= 0.2352\ngini = 0.0508\nsamples = 6823\nvalue = [178, 6645]"] ;
58 -> 59 ;
60 [label="X[101] <= 0.0676\ngini = 0.0497\nsamples = 6819\nvalue = [174, 6645]"] ;
59 -> 60 ;
61 [label="X[3649] <= 0.3261\ngini = 0.0486\nsamples = 6815\nvalue = [170, 6645]"] ;
60 -> 61 ;
62 [label="X[1257] <= 0.1025\ngini = 0.0476\nsamples = 6811\nvalue = [166, 6645]"] ;
61 -> 62 ;
63 [label="X[1107] <= 0.2984\ngini = 0.0465\nsamples = 6807\nvalue = [162, 6645]"] ;
62 -> 63 ;
64 [label="X[2230] <= 0.1895\ngini = 0.0454\nsamples = 6803\nvalue = [158, 6645]"] ;
63 -> 64 ;
65 [label="X[3147] <= 0.345\ngini = 0.0443\nsamples = 6799\nvalue = [154, 6645]"] ;
64 -> 65 ;
66 [label="X[142] <= 0.1375\ngini = 0.0432\nsamples = 6795\nvalue = [150, 6645]"] ;
65 -> 66 ;
67 [label="X[2442] <= 0.2164\ngini = 0.0421\nsamples = 6791\nvalue = [146, 6645]"] ;
66 -> 67 ;
68 [label="X[2982] <= 0.1296\ngini = 0.041\nsamples = 6787\nvalue = [142, 6645]"] ;
67 -> 68 ;
69 [label="X[1657] <= 0.1891\ngini = 0.0396\nsamples = 6780\nvalue = [137, 6643]"] ;
68 -> 69 ;
70 [label="X[600] <= 0.1177\ngini = 0.0388\nsamples = 6777\nvalue = [134, 6643]"] ;
69 -> 70 ;
71 [label="X[2032] <= 0.1948\ngini = 0.0379\nsamples = 6774\nvalue = [131, 6643]"] ;
70 -> 71 ;
72 [label="X[1577] <= 0.1797\ngini = 0.0371\nsamples = 6771\nvalue = [128, 6643]"] ;
71 -> 72 ;
73 [label="X[2213] <= 0.1483\ngini = 0.0363\nsamples = 6768\nvalue = [125, 6643]"] ;
72 -> 73 ;
74 [label="X[3003] <= 0.0913\ngini = 0.0354\nsamples = 6765\nvalue = [122, 6643]"] ;
73 -> 74 ;
75 [label="X[3592] <= 0.0641\ngini = 0.0346\nsamples = 6762\nvalue = [119, 6643]"] ;
74 -> 75 ;
76 [label="X[1822] <= 0.1209\ngini = 0.0335\nsamples = 6756\nvalue = [115, 6641]"] ;
75 -> 76 ;
77 [label="X[3378] <= 0.098\ngini = 0.0329\nsamples = 6754\nvalue = [113, 6641]"] ;
76 -> 77 ;
78 [label="X[2772] <= 0.2102\ngini = 0.0323\nsamples = 6752\nvalue = [111, 6641]"] ;
77 -> 78 ;
79 [label="X[646] <= 0.1473\ngini = 0.0318\nsamples = 6750\nvalue = [109, 6641]"] ;
78 -> 79 ;
80 [label="X[3254] <= 0.2721\ngini = 0.0312\nsamples = 6748\nvalue = [107, 6641]"] ;
79 -> 80 ;
81 [label="X[3098] <= 0.3063\ngini = 0.0306\nsamples = 6746\nvalue = [105, 6641]"] ;
80 -> 81 ;
82 [label="X[2988] <= 0.1544\ngini = 0.0301\nsamples = 6744\nvalue = [103, 6641]"] ;
81 -> 82 ;
83 [label="X[1315] <= 0.2056\ngini = 0.0295\nsamples = 6742\nvalue = [101, 6641]"] ;
82 -> 83 ;
84 [label="X[1973] <= 0.2262\ngini = 0.0289\nsamples = 6740\nvalue = [99, 6641]"] ;
83 -> 84 ;
85 [label="X[2066] <= 0.201\ngini = 0.0284\nsamples = 6738\nvalue = [97, 6641]"] ;
84 -> 85 ;
86 [label="X[2275] <= 0.21\ngini = 0.0278\nsamples = 6736\nvalue = [95, 6641]"] ;
85 -> 86 ;
87 [label="X[2281] <= 0.2859\ngini = 0.0272\nsamples = 6734\nvalue = [93, 6641]"] ;
86 -> 87 ;
88 [label="X[2688] <= 0.161\ngini = 0.0267\nsamples = 6732\nvalue = [91, 6641]"] ;
87 -> 88 ;
89 [label="X[1138] <= 0.2197\ngini = 0.0261\nsamples = 6730\nvalue = [89, 6641]"] ;
88 -> 89 ;
90 [label="X[3182] <= 0.3456\ngini = 0.0255\nsamples = 6728\nvalue = [87, 6641]"] ;
89 -> 90 ;
91 [label="X[681] <= 0.1692\ngini = 0.025\nsamples = 6726\nvalue = [85, 6641]"] ;
90 -> 91 ;
92 [label="X[662] <= 0.3329\ngini = 0.0244\nsamples = 6724\nvalue = [83, 6641]"] ;
91 -> 92 ;
93 [label="X[150] <= 0.2491\ngini = 0.0238\nsamples = 6722\nvalue = [81, 6641]"] ;
92 -> 93 ;
94 [label="X[1525] <= 0.2774\ngini = 0.0232\nsamples = 6720\nvalue = [79, 6641]"] ;
93 -> 94 ;
95 [label="X[1354] <= 0.1468\ngini = 0.0227\nsamples = 6718\nvalue = [77, 6641]"] ;
94 -> 95 ;
96 [label="X[969] <= 0.2683\ngini = 0.0221\nsamples = 6716\nvalue = [75, 6641]"] ;
95 -> 96 ;
97 [label="X[2699] <= 0.1096\ngini = 0.0215\nsamples = 6714\nvalue = [73, 6641]"] ;
96 -> 97 ;
98 [label="X[1464] <= 0.1638\ngini = 0.0209\nsamples = 6712\nvalue = [71, 6641]"] ;
97 -> 98 ;
99 [label="X[2874] <= 0.1496\ngini = 0.0204\nsamples = 6710\nvalue = [69, 6641]"] ;
98 -> 99 ;
100 [label="X[3492] <= 0.6486\ngini = 0.0198\nsamples = 6708\nvalue = [67, 6641]"] ;
99 -> 100 ;
101 [label="X[1788] <= 0.1757\ngini = 0.0192\nsamples = 6706\nvalue = [65, 6641]"] ;
100 -> 101 ;
102 [label="X[2169] <= 0.208\ngini = 0.0186\nsamples = 6704\nvalue = [63, 6641]"] ;
101 -> 102 ;
103 [label="X[2580] <= 0.1304\ngini = 0.018\nsamples = 6702\nvalue = [61, 6641]"] ;
102 -> 103 ;
104 [label="X[1859] <= 0.1828\ngini = 0.0175\nsamples = 6700\nvalue = [59, 6641]"] ;
103 -> 104 ;
105 [label="X[2208] <= 0.1874\ngini = 0.0169\nsamples = 6698\nvalue = [57, 6641]"] ;
104 -> 105 ;
106 [label="X[2119] <= 0.3956\ngini = 0.0163\nsamples = 6696\nvalue = [55, 6641]"] ;
105 -> 106 ;
107 [label="X[2906] <= 0.2656\ngini = 0.0157\nsamples = 6694\nvalue = [53, 6641]"] ;
106 -> 107 ;
108 [label="X[1191] <= 0.3235\ngini = 0.0151\nsamples = 6692\nvalue = [51, 6641]"] ;
107 -> 108 ;
109 [label="X[1168] <= 0.2645\ngini = 0.0145\nsamples = 6690\nvalue = [49, 6641]"] ;
108 -> 109 ;
110 [label="X[468] <= 0.0785\ngini = 0.014\nsamples = 6688\nvalue = [47, 6641]"] ;
109 -> 110 ;
111 [label="X[1621] <= 0.5792\ngini = 0.0134\nsamples = 6686\nvalue = [45, 6641]"] ;
110 -> 111 ;
112 [label="X[1858] <= 0.5272\ngini = 0.0128\nsamples = 6684\nvalue = [43, 6641]"] ;
111 -> 112 ;
113 [label="X[3714] <= 0.2416\ngini = 0.0122\nsamples = 6682\nvalue = [41, 6641]"] ;
112 -> 113 ;
114 [label="X[194] <= 0.1817\ngini = 0.0116\nsamples = 6680\nvalue = [39, 6641]"] ;
113 -> 114 ;
115 [label="X[1334] <= 0.2214\ngini = 0.011\nsamples = 6678\nvalue = [37, 6641]"] ;
114 -> 115 ;
116 [label="X[1078] <= 0.2127\ngini = 0.0104\nsamples = 6676\nvalue = [35, 6641]"] ;
115 -> 116 ;
117 [label="X[594] <= 0.0834\ngini = 0.0098\nsamples = 6673\nvalue = [33, 6640]"] ;
116 -> 117 ;
118 [label="X[3037] <= 0.5623\ngini = 0.0095\nsamples = 6672\nvalue = [32, 6640]"] ;
117 -> 118 ;
119 [label="X[3439] <= 0.235\ngini = 0.0093\nsamples = 6671\nvalue = [31, 6640]"] ;
118 -> 119 ;
120 [label="X[2734] <= 0.3671\ngini = 0.009\nsamples = 6670\nvalue = [30, 6640]"] ;
119 -> 120 ;
121 [label="X[3433] <= 0.0737\ngini = 0.0087\nsamples = 6669\nvalue = [29, 6640]"] ;
120 -> 121 ;
122 [label="X[1371] <= 0.213\ngini = 0.0084\nsamples = 6668\nvalue = [28, 6640]"] ;
121 -> 122 ;
123 [label="X[3002] <= 0.1003\ngini = 0.0081\nsamples = 6667\nvalue = [27, 6640]"] ;
122 -> 123 ;
124 [label="X[2311] <= 0.1071\ngini = 0.0078\nsamples = 6666\nvalue = [26, 6640]"] ;
123 -> 124 ;
125 [label="X[3166] <= 0.1564\ngini = 0.0075\nsamples = 6665\nvalue = [25, 6640]"] ;
124 -> 125 ;
126 [label="X[2078] <= 0.2921\ngini = 0.0072\nsamples = 6664\nvalue = [24, 6640]"] ;
125 -> 126 ;
127 [label="X[1429] <= 0.4527\ngini = 0.0069\nsamples = 6663\nvalue = [23, 6640]"] ;
126 -> 127 ;
128 [label="X[1917] <= 0.4899\ngini = 0.0066\nsamples = 6662\nvalue = [22, 6640]"] ;
127 -> 128 ;
129 [label="X[1901] <= 0.0667\ngini = 0.0063\nsamples = 6661\nvalue = [21, 6640]"] ;
128 -> 129 ;
130 [label="X[1956] <= 0.7503\ngini = 0.006\nsamples = 6660\nvalue = [20, 6640]"] ;
129 -> 130 ;
131 [label="X[3664] <= 0.4309\ngini = 0.0057\nsamples = 6659\nvalue = [19, 6640]"] ;
130 -> 131 ;
132 [label="X[3004] <= 0.3592\ngini = 0.0054\nsamples = 6658\nvalue = [18, 6640]"] ;
131 -> 132 ;
133 [label="X[3577] <= 0.0606\ngini = 0.0051\nsamples = 6657\nvalue = [17, 6640]"] ;
132 -> 133 ;
134 [label="X[3689] <= 0.3985\ngini = 0.0048\nsamples = 6656\nvalue = [16, 6640]"] ;
133 -> 134 ;
135 [label="X[2285] <= 0.3503\ngini = 0.0042\nsamples = 6652\nvalue = [14, 6638]"] ;
134 -> 135 ;
136 [label="X[1864] <= 0.2382\ngini = 0.0036\nsamples = 6638\nvalue = [12, 6626]"] ;
135 -> 136 ;
137 [label="X[2819] <= 0.0053\ngini = 0.0033\nsamples = 6628\nvalue = [11, 6617]"] ;
136 -> 137 ;
138 [label="X[1274] <= 0.0099\ngini = 0.0052\nsamples = 4220\nvalue = [11, 4209]"] ;
137 -> 138 ;
139 [label="X[1958] <= 0.0108\ngini = 0.0072\nsamples = 3030\nvalue = [11, 3019]"] ;
138 -> 139 ;
140 [label="X[2816] <= 0.0067\ngini = 0.0087\nsamples = 2523\nvalue = [11, 2512]"] ;
139 -> 140 ;
141 [label="X[437] <= 0.0132\ngini = 0.0103\nsamples = 2118\nvalue = [11, 2107]"] ;
140 -> 141 ;
142 [label="X[2121] <= 0.0125\ngini = 0.0119\nsamples = 1842\nvalue = [11, 1831]"] ;
141 -> 142 ;
143 [label="X[1164] <= 0.0217\ngini = 0.0134\nsamples = 1625\nvalue = [11, 1614]"] ;
142 -> 143 ;
144 [label="X[1737] <= 0.0244\ngini = 0.0152\nsamples = 1438\nvalue = [11, 1427]"] ;
143 -> 144 ;
145 [label="X[1921] <= 0.0148\ngini = 0.0167\nsamples = 1303\nvalue = [11, 1292]"] ;
144 -> 145 ;
146 [label="X[2241] <= 0.0183\ngini = 0.0184\nsamples = 1187\nvalue = [11, 1176]"] ;
145 -> 146 ;
147 [label="X[3671] <= 0.0223\ngini = 0.0195\nsamples = 1117\nvalue = [11, 1106]"] ;
146 -> 147 ;
148 [label="X[2583] <= 0.0224\ngini = 0.0207\nsamples = 1051\nvalue = [11, 1040]"] ;
147 -> 148 ;
149 [label="X[2635] <= 0.0324\ngini = 0.0219\nsamples = 995\nvalue = [11, 984]"] ;
148 -> 149 ;
150 [label="X[1341] <= 0.0384\ngini = 0.023\nsamples = 945\nvalue = [11, 934]"] ;
149 -> 150 ;
151 [label="X[1380] <= 0.0352\ngini = 0.0242\nsamples = 898\nvalue = [11, 887]"] ;
150 -> 151 ;
152 [label="X[1707] <= 0.061\ngini = 0.0254\nsamples = 856\nvalue = [11, 845]"] ;
151 -> 152 ;
153 [label="X[997] <= 0.0579\ngini = 0.0265\nsamples = 818\nvalue = [11, 807]"] ;
152 -> 153 ;
154 [label="X[1899] <= 0.052\ngini = 0.0277\nsamples = 782\nvalue = [11, 771]"] ;
153 -> 154 ;
155 [label="X[3158] <= 0.0315\ngini = 0.0289\nsamples = 749\nvalue = [11, 738]"] ;
154 -> 155 ;
156 [label="X[1270] <= 0.0221\ngini = 0.0302\nsamples = 718\nvalue = [11, 707]"] ;
155 -> 156 ;
157 [label="X[2250] <= 0.0474\ngini = 0.0312\nsamples = 694\nvalue = [11, 683]"] ;
156 -> 157 ;
158 [label="X[3484] <= 0.0822\ngini = 0.0322\nsamples = 672\nvalue = [11, 661]"] ;
157 -> 158 ;
159 [label="X[1956] <= 0.0552\ngini = 0.0332\nsamples = 652\nvalue = [11, 641]"] ;
158 -> 159 ;
160 [label="X[3732] <= 0.0984\ngini = 0.0342\nsamples = 632\nvalue = [11, 621]"] ;
159 -> 160 ;
161 [label="X[2910] <= 0.0711\ngini = 0.0353\nsamples = 612\nvalue = [11, 601]"] ;
160 -> 161 ;
162 [label="X[1825] <= 0.0926\ngini = 0.0364\nsamples = 594\nvalue = [11, 583]"] ;
161 -> 162 ;
163 [label="X[950] <= 0.031\ngini = 0.0374\nsamples = 577\nvalue = [11, 566]"] ;
162 -> 163 ;
164 [label="X[3651] <= 0.0326\ngini = 0.0384\nsamples = 561\nvalue = [11, 550]"] ;
163 -> 164 ;
165 [label="X[944] <= 0.048\ngini = 0.0396\nsamples = 545\nvalue = [11, 534]"] ;
164 -> 165 ;
166 [label="X[1009] <= 0.0825\ngini = 0.0406\nsamples = 531\nvalue = [11, 520]"] ;
165 -> 166 ;
167 [label="X[817] <= 0.0749\ngini = 0.0416\nsamples = 517\nvalue = [11, 506]"] ;
166 -> 167 ;
168 [label="X[3451] <= 0.0673\ngini = 0.0427\nsamples = 504\nvalue = [11, 493]"] ;
167 -> 168 ;
169 [label="X[1304] <= 0.0975\ngini = 0.0437\nsamples = 492\nvalue = [11, 481]"] ;
168 -> 169 ;
170 [label="X[2638] <= 0.1225\ngini = 0.0447\nsamples = 481\nvalue = [11, 470]"] ;
169 -> 170 ;
171 [label="X[2419] <= 0.1219\ngini = 0.0457\nsamples = 470\nvalue = [11, 459]"] ;
170 -> 171 ;
172 [label="X[848] <= 0.1794\ngini = 0.0467\nsamples = 460\nvalue = [11, 449]"] ;
171 -> 172 ;
173 [label="X[1782] <= 0.1144\ngini = 0.0476\nsamples = 451\nvalue = [11, 440]"] ;
172 -> 173 ;
174 [label="X[3496] <= 0.062\ngini = 0.0484\nsamples = 443\nvalue = [11, 432]"] ;
173 -> 174 ;
175 [label="X[1025] <= 0.1658\ngini = 0.0493\nsamples = 435\nvalue = [11, 424]"] ;
174 -> 175 ;
176 [label="X[1631] <= 0.0679\ngini = 0.0502\nsamples = 427\nvalue = [11, 416]"] ;
175 -> 176 ;
177 [label="X[1789] <= 0.0821\ngini = 0.0511\nsamples = 419\nvalue = [11, 408]"] ;
176 -> 177 ;
178 [label="X[1900] <= 0.5\ngini = 0.052\nsamples = 412\nvalue = [11, 401]"] ;
177 -> 178 ;
179 [label="X[2259] <= 0.0459\ngini = 0.0527\nsamples = 406\nvalue = [11, 395]"] ;
178 -> 179 ;
180 [label="X[3483] <= 0.0955\ngini = 0.0535\nsamples = 400\nvalue = [11, 389]"] ;
179 -> 180 ;
181 [label="X[1807] <= 0.1752\ngini = 0.0543\nsamples = 394\nvalue = [11, 383]"] ;
180 -> 181 ;
182 [label="X[821] <= 0.1695\ngini = 0.0551\nsamples = 388\nvalue = [11, 377]"] ;
181 -> 182 ;
183 [label="X[3164] <= 0.1499\ngini = 0.0558\nsamples = 383\nvalue = [11, 372]"] ;
182 -> 183 ;
184 [label="X[2881] <= 0.163\ngini = 0.0565\nsamples = 378\nvalue = [11, 367]"] ;
183 -> 184 ;
185 [label="X[3506] <= 0.094\ngini = 0.0572\nsamples = 373\nvalue = [11, 362]"] ;
184 -> 185 ;
186 [label="X[3264] <= 0.2393\ngini = 0.0578\nsamples = 369\nvalue = [11, 358]"] ;
185 -> 186 ;
187 [label="X[1492] <= 0.137\ngini = 0.0585\nsamples = 365\nvalue = [11, 354]"] ;
186 -> 187 ;
188 [label="X[1522] <= 0.11\ngini = 0.0591\nsamples = 361\nvalue = [11, 350]"] ;
187 -> 188 ;
189 [label="X[2260] <= 0.1263\ngini = 0.0597\nsamples = 357\nvalue = [11, 346]"] ;
188 -> 189 ;
190 [label="X[3023] <= 0.161\ngini = 0.0604\nsamples = 353\nvalue = [11, 342]"] ;
189 -> 190 ;
191 [label="X[1542] <= 0.2479\ngini = 0.0611\nsamples = 349\nvalue = [11, 338]"] ;
190 -> 191 ;
192 [label="X[2462] <= 0.159\ngini = 0.0617\nsamples = 345\nvalue = [11, 334]"] ;
191 -> 192 ;
193 [label="X[2464] <= 0.1288\ngini = 0.0624\nsamples = 341\nvalue = [11, 330]"] ;
192 -> 193 ;
194 [label="X[1243] <= 0.1411\ngini = 0.0632\nsamples = 337\nvalue = [11, 326]"] ;
193 -> 194 ;
195 [label="X[1842] <= 0.1788\ngini = 0.0639\nsamples = 333\nvalue = [11, 322]"] ;
194 -> 195 ;
196 [label="X[3543] <= 0.1834\ngini = 0.0646\nsamples = 329\nvalue = [11, 318]"] ;
195 -> 196 ;
197 [label="X[729] <= 0.1576\ngini = 0.0654\nsamples = 325\nvalue = [11, 314]"] ;
196 -> 197 ;
198 [label="X[920] <= 0.2133\ngini = 0.0662\nsamples = 321\nvalue = [11, 310]"] ;
197 -> 198 ;
199 [label="X[2308] <= 0.1399\ngini = 0.067\nsamples = 317\nvalue = [11, 306]"] ;
198 -> 199 ;
200 [label="X[3284] <= 0.1749\ngini = 0.0676\nsamples = 314\nvalue = [11, 303]"] ;
199 -> 200 ;
201 [label="X[3273] <= 0.2174\ngini = 0.0682\nsamples = 311\nvalue = [11, 300]"] ;
200 -> 201 ;
202 [label="X[2788] <= 0.1913\ngini = 0.0689\nsamples = 308\nvalue = [11, 297]"] ;
201 -> 202 ;
203 [label="X[1698] <= 0.1445\ngini = 0.0695\nsamples = 305\nvalue = [11, 294]"] ;
202 -> 203 ;
204 [label="X[854] <= 0.1528\ngini = 0.0702\nsamples = 302\nvalue = [11, 291]"] ;
203 -> 204 ;
205 [label="X[2684] <= 0.1324\ngini = 0.0709\nsamples = 299\nvalue = [11, 288]"] ;
204 -> 205 ;
206 [label="X[1611] <= 0.1628\ngini = 0.0716\nsamples = 296\nvalue = [11, 285]"] ;
205 -> 206 ;
207 [label="X[3369] <= 0.262\ngini = 0.0723\nsamples = 293\nvalue = [11, 282]"] ;
206 -> 207 ;
208 [label="X[3188] <= 0.2479\ngini = 0.073\nsamples = 290\nvalue = [11, 279]"] ;
207 -> 208 ;
209 [label="X[795] <= 0.2705\ngini = 0.0737\nsamples = 287\nvalue = [11, 276]"] ;
208 -> 209 ;
210 [label="X[1740] <= 0.2658\ngini = 0.0745\nsamples = 284\nvalue = [11, 273]"] ;
209 -> 210 ;
211 [label="X[1863] <= 0.1902\ngini = 0.0752\nsamples = 281\nvalue = [11, 270]"] ;
210 -> 211 ;
212 [label="X[3334] <= 0.2636\ngini = 0.076\nsamples = 278\nvalue = [11, 267]"] ;
211 -> 212 ;
213 [label="X[187] <= 0.18\ngini = 0.0768\nsamples = 275\nvalue = [11, 264]"] ;
212 -> 213 ;
214 [label="X[599] <= 0.2592\ngini = 0.0776\nsamples = 272\nvalue = [11, 261]"] ;
213 -> 214 ;
215 [label="X[1372] <= 0.2327\ngini = 0.0784\nsamples = 269\nvalue = [11, 258]"] ;
214 -> 215 ;
216 [label="X[2622] <= 0.5\ngini = 0.0793\nsamples = 266\nvalue = [11, 255]"] ;
215 -> 216 ;
217 [label="X[3494] <= 0.3428\ngini = 0.0802\nsamples = 263\nvalue = [11, 252]"] ;
216 -> 217 ;
218 [label="X[3686] <= 0.2283\ngini = 0.081\nsamples = 260\nvalue = [11, 249]"] ;
217 -> 218 ;
219 [label="X[810] <= 0.2695\ngini = 0.0819\nsamples = 257\nvalue = [11, 246]"] ;
218 -> 219 ;
220 [label="X[2361] <= 0.5\ngini = 0.0826\nsamples = 255\nvalue = [11, 244]"] ;
219 -> 220 ;
221 [label="X[2381] <= 0.1215\ngini = 0.0832\nsamples = 253\nvalue = [11, 242]"] ;
220 -> 221 ;
222 [label="X[2615] <= 0.1702\ngini = 0.0838\nsamples = 251\nvalue = [11, 240]"] ;
221 -> 222 ;
223 [label="X[3759] <= 0.2724\ngini = 0.0845\nsamples = 249\nvalue = [11, 238]"] ;
222 -> 223 ;
224 [label="X[917] <= 0.3778\ngini = 0.0851\nsamples = 247\nvalue = [11, 236]"] ;
223 -> 224 ;
225 [label="X[2326] <= 0.5\ngini = 0.0858\nsamples = 245\nvalue = [11, 234]"] ;
224 -> 225 ;
226 [label="X[666] <= 0.5\ngini = 0.0864\nsamples = 243\nvalue = [11, 232]"] ;
225 -> 226 ;
227 [label="X[2618] <= 0.0792\ngini = 0.0871\nsamples = 241\nvalue = [11, 230]"] ;
226 -> 227 ;
228 [label="X[813] <= 0.2443\ngini = 0.0875\nsamples = 240\nvalue = [11, 229]"] ;
227 -> 228 ;
229 [label="X[2093] <= 0.1969\ngini = 0.0878\nsamples = 239\nvalue = [11, 228]"] ;
228 -> 229 ;
230 [label="X[1693] <= 0.1034\ngini = 0.0882\nsamples = 238\nvalue = [11, 227]"] ;
229 -> 230 ;
231 [label="X[934] <= 0.4178\ngini = 0.0885\nsamples = 237\nvalue = [11, 226]"] ;
230 -> 231 ;
232 [label="gini = 0.0889\nsamples = 236\nvalue = [11, 225]"] ;
231 -> 232 ;
233 [label="gini = 0.0\nsamples = 1\nvalue = [0, 1]"] ;
231 -> 233 ;
234 [label="gini = 0.0\nsamples = 1\nvalue = [0, 1]"] ;
230 -> 234 ;
235 [label="gini = 0.0\nsamples = 1\nvalue = [0, 1]"] ;
229 -> 235 ;
236 [label="gini = 0.0\nsamples = 1\nvalue = [0, 1]"] ;
228 -> 236 ;
237 [label="gini = 0.0\nsamples = 1\nvalue = [0, 1]"] ;
227 -> 237 ;
238 [label="gini = 0.0\nsamples = 2\nvalue = [0, 2]"] ;
226 -> 238 ;
239 [label="gini = 0.0\nsamples = 2\nvalue = [0, 2]"] ;
225 -> 239 ;
240 [label="gini = 0.0\nsamples = 2\nvalue = [0, 2]"] ;
224 -> 240 ;
241 [label="gini = 0.0\nsamples = 2\nvalue = [0, 2]"] ;
223 -> 241 ;
242 [label="gini = 0.0\nsamples = 2\nvalue = [0, 2]"] ;
222 -> 242 ;
243 [label="gini = 0.0\nsamples = 2\nvalue = [0, 2]"] ;
221 -> 243 ;
244 [label="gini = 0.0\nsamples = 2\nvalue = [0, 2]"] ;
220 -> 244 ;
245 [label="gini = 0.0\nsamples = 2\nvalue = [0, 2]"] ;
219 -> 245 ;
246 [label="gini = 0.0\nsamples = 3\nvalue = [0, 3]"] ;
218 -> 246 ;
247 [label="gini = 0.0\nsamples = 3\nvalue = [0, 3]"] ;
217 -> 247 ;
248 [label="gini = 0.0\nsamples = 3\nvalue = [0, 3]"] ;
216 -> 248 ;
249 [label="gini = 0.0\nsamples = 3\nvalue = [0, 3]"] ;
215 -> 249 ;
250 [label="gini = 0.0\nsamples = 3\nvalue = [0, 3]"] ;
214 -> 250 ;
251 [label="gini = 0.0\nsamples = 3\nvalue = [0, 3]"] ;
213 -> 251 ;
252 [label="gini = 0.0\nsamples = 3\nvalue = [0, 3]"] ;
212 -> 252 ;
253 [label="gini = 0.0\nsamples = 3\nvalue = [0, 3]"] ;
211 -> 253 ;
254 [label="gini = 0.0\nsamples = 3\nvalue = [0, 3]"] ;
210 -> 254 ;
255 [label="gini = 0.0\nsamples = 3\nvalue = [0, 3]"] ;
209 -> 255 ;
256 [label="gini = 0.0\nsamples = 3\nvalue = [0, 3]"] ;
208 -> 256 ;
257 [label="gini = 0.0\nsamples = 3\nvalue = [0, 3]"] ;
207 -> 257 ;
258 [label="gini = 0.0\nsamples = 3\nvalue = [0, 3]"] ;
206 -> 258 ;
259 [label="gini = 0.0\nsamples = 3\nvalue = [0, 3]"] ;
205 -> 259 ;
260 [label="gini = 0.0\nsamples = 3\nvalue = [0, 3]"] ;
204 -> 260 ;
261 [label="gini = 0.0\nsamples = 3\nvalue = [0, 3]"] ;
203 -> 261 ;
262 [label="gini = 0.0\nsamples = 3\nvalue = [0, 3]"] ;
202 -> 262 ;
263 [label="gini = 0.0\nsamples = 3\nvalue = [0, 3]"] ;
201 -> 263 ;
264 [label="gini = 0.0\nsamples = 3\nvalue = [0, 3]"] ;
200 -> 264 ;
265 [label="gini = 0.0\nsamples = 3\nvalue = [0, 3]"] ;
199 -> 265 ;
266 [label="gini = 0.0\nsamples = 4\nvalue = [0, 4]"] ;
198 -> 266 ;
267 [label="gini = 0.0\nsamples = 4\nvalue = [0, 4]"] ;
197 -> 267 ;
268 [label="gini = 0.0\nsamples = 4\nvalue = [0, 4]"] ;
196 -> 268 ;
269 [label="gini = 0.0\nsamples = 4\nvalue = [0, 4]"] ;
195 -> 269 ;
270 [label="gini = 0.0\nsamples = 4\nvalue = [0, 4]"] ;
194 -> 270 ;
271 [label="gini = 0.0\nsamples = 4\nvalue = [0, 4]"] ;
193 -> 271 ;
272 [label="gini = 0.0\nsamples = 4\nvalue = [0, 4]"] ;
192 -> 272 ;
273 [label="gini = 0.0\nsamples = 4\nvalue = [0, 4]"] ;
191 -> 273 ;
274 [label="gini = 0.0\nsamples = 4\nvalue = [0, 4]"] ;
190 -> 274 ;
275 [label="gini = 0.0\nsamples = 4\nvalue = [0, 4]"] ;
189 -> 275 ;
276 [label="gini = 0.0\nsamples = 4\nvalue = [0, 4]"] ;
188 -> 276 ;
277 [label="gini = 0.0\nsamples = 4\nvalue = [0, 4]"] ;
187 -> 277 ;
278 [label="gini = 0.0\nsamples = 4\nvalue = [0, 4]"] ;
186 -> 278 ;
279 [label="gini = 0.0\nsamples = 4\nvalue = [0, 4]"] ;
185 -> 279 ;
280 [label="gini = 0.0\nsamples = 5\nvalue = [0, 5]"] ;
184 -> 280 ;
281 [label="gini = 0.0\nsamples = 5\nvalue = [0, 5]"] ;
183 -> 281 ;
282 [label="gini = 0.0\nsamples = 5\nvalue = [0, 5]"] ;
182 -> 282 ;
283 [label="gini = 0.0\nsamples = 6\nvalue = [0, 6]"] ;
181 -> 283 ;
284 [label="gini = 0.0\nsamples = 6\nvalue = [0, 6]"] ;
180 -> 284 ;
285 [label="gini = 0.0\nsamples = 6\nvalue = [0, 6]"] ;
179 -> 285 ;
286 [label="gini = 0.0\nsamples = 6\nvalue = [0, 6]"] ;
178 -> 286 ;
287 [label="gini = 0.0\nsamples = 7\nvalue = [0, 7]"] ;
177 -> 287 ;
288 [label="gini = 0.0\nsamples = 8\nvalue = [0, 8]"] ;
176 -> 288 ;
289 [label="gini = 0.0\nsamples = 8\nvalue = [0, 8]"] ;
175 -> 289 ;
290 [label="gini = 0.0\nsamples = 8\nvalue = [0, 8]"] ;
174 -> 290 ;
291 [label="gini = 0.0\nsamples = 8\nvalue = [0, 8]"] ;
173 -> 291 ;
292 [label="gini = 0.0\nsamples = 9\nvalue = [0, 9]"] ;
172 -> 292 ;
293 [label="gini = 0.0\nsamples = 10\nvalue = [0, 10]"] ;
171 -> 293 ;
294 [label="gini = 0.0\nsamples = 11\nvalue = [0, 11]"] ;
170 -> 294 ;
295 [label="gini = 0.0\nsamples = 11\nvalue = [0, 11]"] ;
169 -> 295 ;
296 [label="gini = 0.0\nsamples = 12\nvalue = [0, 12]"] ;
168 -> 296 ;
297 [label="gini = 0.0\nsamples = 13\nvalue = [0, 13]"] ;
167 -> 297 ;
298 [label="gini = 0.0\nsamples = 14\nvalue = [0, 14]"] ;
166 -> 298 ;
299 [label="gini = 0.0\nsamples = 14\nvalue = [0, 14]"] ;
165 -> 299 ;
300 [label="gini = 0.0\nsamples = 16\nvalue = [0, 16]"] ;
164 -> 300 ;
301 [label="gini = 0.0\nsamples = 16\nvalue = [0, 16]"] ;
163 -> 301 ;
302 [label="gini = 0.0\nsamples = 17\nvalue = [0, 17]"] ;
162 -> 302 ;
303 [label="gini = 0.0\nsamples = 18\nvalue = [0, 18]"] ;
161 -> 303 ;
304 [label="gini = 0.0\nsamples = 20\nvalue = [0, 20]"] ;
160 -> 304 ;
305 [label="gini = 0.0\nsamples = 20\nvalue = [0, 20]"] ;
159 -> 305 ;
306 [label="gini = 0.0\nsamples = 20\nvalue = [0, 20]"] ;
158 -> 306 ;
307 [label="gini = 0.0\nsamples = 22\nvalue = [0, 22]"] ;
157 -> 307 ;
308 [label="gini = 0.0\nsamples = 24\nvalue = [0, 24]"] ;
156 -> 308 ;
309 [label="gini = 0.0\nsamples = 31\nvalue = [0, 31]"] ;
155 -> 309 ;
310 [label="gini = 0.0\nsamples = 33\nvalue = [0, 33]"] ;
154 -> 310 ;
311 [label="gini = 0.0\nsamples = 36\nvalue = [0, 36]"] ;
153 -> 311 ;
312 [label="gini = 0.0\nsamples = 38\nvalue = [0, 38]"] ;
152 -> 312 ;
313 [label="gini = 0.0\nsamples = 42\nvalue = [0, 42]"] ;
151 -> 313 ;
314 [label="gini = 0.0\nsamples = 47\nvalue = [0, 47]"] ;
150 -> 314 ;
315 [label="gini = 0.0\nsamples = 50\nvalue = [0, 50]"] ;
149 -> 315 ;
316 [label="gini = 0.0\nsamples = 56\nvalue = [0, 56]"] ;
148 -> 316 ;
317 [label="gini = 0.0\nsamples = 66\nvalue = [0, 66]"] ;
147 -> 317 ;
318 [label="gini = 0.0\nsamples = 70\nvalue = [0, 70]"] ;
146 -> 318 ;
319 [label="gini = 0.0\nsamples = 116\nvalue = [0, 116]"] ;
145 -> 319 ;
320 [label="gini = 0.0\nsamples = 135\nvalue = [0, 135]"] ;
144 -> 320 ;
321 [label="gini = 0.0\nsamples = 187\nvalue = [0, 187]"] ;
143 -> 321 ;
322 [label="gini = 0.0\nsamples = 217\nvalue = [0, 217]"] ;
142 -> 322 ;
323 [label="gini = 0.0\nsamples = 276\nvalue = [0, 276]"] ;
141 -> 323 ;
324 [label="gini = 0.0\nsamples = 405\nvalue = [0, 405]"] ;
140 -> 324 ;
325 [label="gini = 0.0\nsamples = 507\nvalue = [0, 507]"] ;
139 -> 325 ;
326 [label="gini = 0.0\nsamples = 1190\nvalue = [0, 1190]"] ;
138 -> 326 ;
327 [label="gini = 0.0\nsamples = 2408\nvalue = [0, 2408]"] ;
137 -> 327 ;
328 [label="X[1864] <= 0.2529\ngini = 0.18\nsamples = 10\nvalue = [1, 9]"] ;
136 -> 328 ;
329 [label="gini = 0.0\nsamples = 1\nvalue = [1, 0]"] ;
328 -> 329 ;
330 [label="gini = 0.0\nsamples = 9\nvalue = [0, 9]"] ;
328 -> 330 ;
331 [label="X[2285] <= 0.3906\ngini = 0.2449\nsamples = 14\nvalue = [2, 12]"] ;
135 -> 331 ;
332 [label="gini = 0.0\nsamples = 2\nvalue = [2, 0]"] ;
331 -> 332 ;
333 [label="gini = 0.0\nsamples = 12\nvalue = [0, 12]"] ;
331 -> 333 ;
334 [label="X[3689] <= 0.4798\ngini = 0.5\nsamples = 4\nvalue = [2, 2]"] ;
134 -> 334 ;
335 [label="gini = 0.0\nsamples = 2\nvalue = [2, 0]"] ;
334 -> 335 ;
336 [label="gini = 0.0\nsamples = 2\nvalue = [0, 2]"] ;
334 -> 336 ;
337 [label="gini = 0.0\nsamples = 1\nvalue = [1, 0]"] ;
133 -> 337 ;
338 [label="gini = 0.0\nsamples = 1\nvalue = [1, 0]"] ;
132 -> 338 ;
339 [label="gini = 0.0\nsamples = 1\nvalue = [1, 0]"] ;
131 -> 339 ;
340 [label="gini = 0.0\nsamples = 1\nvalue = [1, 0]"] ;
130 -> 340 ;
341 [label="gini = 0.0\nsamples = 1\nvalue = [1, 0]"] ;
129 -> 341 ;
342 [label="gini = 0.0\nsamples = 1\nvalue = [1, 0]"] ;
128 -> 342 ;
343 [label="gini = 0.0\nsamples = 1\nvalue = [1, 0]"] ;
127 -> 343 ;
344 [label="gini = 0.0\nsamples = 1\nvalue = [1, 0]"] ;
126 -> 344 ;
345 [label="gini = 0.0\nsamples = 1\nvalue = [1, 0]"] ;
125 -> 345 ;
346 [label="gini = 0.0\nsamples = 1\nvalue = [1, 0]"] ;
124 -> 346 ;
347 [label="gini = 0.0\nsamples = 1\nvalue = [1, 0]"] ;
123 -> 347 ;
348 [label="gini = 0.0\nsamples = 1\nvalue = [1, 0]"] ;
122 -> 348 ;
349 [label="gini = 0.0\nsamples = 1\nvalue = [1, 0]"] ;
121 -> 349 ;
350 [label="gini = 0.0\nsamples = 1\nvalue = [1, 0]"] ;
120 -> 350 ;
351 [label="gini = 0.0\nsamples = 1\nvalue = [1, 0]"] ;
119 -> 351 ;
352 [label="gini = 0.0\nsamples = 1\nvalue = [1, 0]"] ;
118 -> 352 ;
353 [label="gini = 0.0\nsamples = 1\nvalue = [1, 0]"] ;
117 -> 353 ;
354 [label="X[1009] <= 0.1532\ngini = 0.4444\nsamples = 3\nvalue = [2, 1]"] ;
116 -> 354 ;
355 [label="gini = 0.0\nsamples = 2\nvalue = [2, 0]"] ;
354 -> 355 ;
356 [label="gini = 0.0\nsamples = 1\nvalue = [0, 1]"] ;
354 -> 356 ;
357 [label="gini = 0.0\nsamples = 2\nvalue = [2, 0]"] ;
115 -> 357 ;
358 [label="gini = 0.0\nsamples = 2\nvalue = [2, 0]"] ;
114 -> 358 ;
359 [label="gini = 0.0\nsamples = 2\nvalue = [2, 0]"] ;
113 -> 359 ;
360 [label="gini = 0.0\nsamples = 2\nvalue = [2, 0]"] ;
112 -> 360 ;
361 [label="gini = 0.0\nsamples = 2\nvalue = [2, 0]"] ;
111 -> 361 ;
362 [label="gini = 0.0\nsamples = 2\nvalue = [2, 0]"] ;
110 -> 362 ;
363 [label="gini = 0.0\nsamples = 2\nvalue = [2, 0]"] ;
109 -> 363 ;
364 [label="gini = 0.0\nsamples = 2\nvalue = [2, 0]"] ;
108 -> 364 ;
365 [label="gini = 0.0\nsamples = 2\nvalue = [2, 0]"] ;
107 -> 365 ;
366 [label="gini = 0.0\nsamples = 2\nvalue = [2, 0]"] ;
106 -> 366 ;
367 [label="gini = 0.0\nsamples = 2\nvalue = [2, 0]"] ;
105 -> 367 ;
368 [label="gini = 0.0\nsamples = 2\nvalue = [2, 0]"] ;
104 -> 368 ;
369 [label="gini = 0.0\nsamples = 2\nvalue = [2, 0]"] ;
103 -> 369 ;
370 [label="gini = 0.0\nsamples = 2\nvalue = [2, 0]"] ;
102 -> 370 ;
371 [label="gini = 0.0\nsamples = 2\nvalue = [2, 0]"] ;
101 -> 371 ;
372 [label="gini = 0.0\nsamples = 2\nvalue = [2, 0]"] ;
100 -> 372 ;
373 [label="gini = 0.0\nsamples = 2\nvalue = [2, 0]"] ;
99 -> 373 ;
374 [label="gini = 0.0\nsamples = 2\nvalue = [2, 0]"] ;
98 -> 374 ;
375 [label="gini = 0.0\nsamples = 2\nvalue = [2, 0]"] ;
97 -> 375 ;
376 [label="gini = 0.0\nsamples = 2\nvalue = [2, 0]"] ;
96 -> 376 ;
377 [label="gini = 0.0\nsamples = 2\nvalue = [2, 0]"] ;
95 -> 377 ;
378 [label="gini = 0.0\nsamples = 2\nvalue = [2, 0]"] ;
94 -> 378 ;
379 [label="gini = 0.0\nsamples = 2\nvalue = [2, 0]"] ;
93 -> 379 ;
380 [label="gini = 0.0\nsamples = 2\nvalue = [2, 0]"] ;
92 -> 380 ;
381 [label="gini = 0.0\nsamples = 2\nvalue = [2, 0]"] ;
91 -> 381 ;
382 [label="gini = 0.0\nsamples = 2\nvalue = [2, 0]"] ;
90 -> 382 ;
383 [label="gini = 0.0\nsamples = 2\nvalue = [2, 0]"] ;
89 -> 383 ;
384 [label="gini = 0.0\nsamples = 2\nvalue = [2, 0]"] ;
88 -> 384 ;
385 [label="gini = 0.0\nsamples = 2\nvalue = [2, 0]"] ;
87 -> 385 ;
386 [label="gini = 0.0\nsamples = 2\nvalue = [2, 0]"] ;
86 -> 386 ;
387 [label="gini = 0.0\nsamples = 2\nvalue = [2, 0]"] ;
85 -> 387 ;
388 [label="gini = 0.0\nsamples = 2\nvalue = [2, 0]"] ;
84 -> 388 ;
389 [label="gini = 0.0\nsamples = 2\nvalue = [2, 0]"] ;
83 -> 389 ;
390 [label="gini = 0.0\nsamples = 2\nvalue = [2, 0]"] ;
82 -> 390 ;
391 [label="gini = 0.0\nsamples = 2\nvalue = [2, 0]"] ;
81 -> 391 ;
392 [label="gini = 0.0\nsamples = 2\nvalue = [2, 0]"] ;
80 -> 392 ;
393 [label="gini = 0.0\nsamples = 2\nvalue = [2, 0]"] ;
79 -> 393 ;
394 [label="gini = 0.0\nsamples = 2\nvalue = [2, 0]"] ;
78 -> 394 ;
395 [label="gini = 0.0\nsamples = 2\nvalue = [2, 0]"] ;
77 -> 395 ;
396 [label="gini = 0.0\nsamples = 2\nvalue = [2, 0]"] ;
76 -> 396 ;
397 [label="X[1492] <= 0.0287\ngini = 0.4444\nsamples = 6\nvalue = [4, 2]"] ;
75 -> 397 ;
398 [label="gini = 0.0\nsamples = 4\nvalue = [4, 0]"] ;
397 -> 398 ;
399 [label="gini = 0.0\nsamples = 2\nvalue = [0, 2]"] ;
397 -> 399 ;
400 [label="gini = 0.0\nsamples = 3\nvalue = [3, 0]"] ;
74 -> 400 ;
401 [label="gini = 0.0\nsamples = 3\nvalue = [3, 0]"] ;
73 -> 401 ;
402 [label="gini = 0.0\nsamples = 3\nvalue = [3, 0]"] ;
72 -> 402 ;
403 [label="gini = 0.0\nsamples = 3\nvalue = [3, 0]"] ;
71 -> 403 ;
404 [label="gini = 0.0\nsamples = 3\nvalue = [3, 0]"] ;
70 -> 404 ;
405 [label="gini = 0.0\nsamples = 3\nvalue = [3, 0]"] ;
69 -> 405 ;
406 [label="X[812] <= 0.035\ngini = 0.4082\nsamples = 7\nvalue = [5, 2]"] ;
68 -> 406 ;
407 [label="gini = 0.0\nsamples = 5\nvalue = [5, 0]"] ;
406 -> 407 ;
408 [label="gini = 0.0\nsamples = 2\nvalue = [0, 2]"] ;
406 -> 408 ;
409 [label="gini = 0.0\nsamples = 4\nvalue = [4, 0]"] ;
67 -> 409 ;
410 [label="gini = 0.0\nsamples = 4\nvalue = [4, 0]"] ;
66 -> 410 ;
411 [label="gini = 0.0\nsamples = 4\nvalue = [4, 0]"] ;
65 -> 411 ;
412 [label="gini = 0.0\nsamples = 4\nvalue = [4, 0]"] ;
64 -> 412 ;
413 [label="gini = 0.0\nsamples = 4\nvalue = [4, 0]"] ;
63 -> 413 ;
414 [label="gini = 0.0\nsamples = 4\nvalue = [4, 0]"] ;
62 -> 414 ;
415 [label="gini = 0.0\nsamples = 4\nvalue = [4, 0]"] ;
61 -> 415 ;
416 [label="gini = 0.0\nsamples = 4\nvalue = [4, 0]"] ;
60 -> 416 ;
417 [label="gini = 0.0\nsamples = 4\nvalue = [4, 0]"] ;
59 -> 417 ;
418 [label="gini = 0.0\nsamples = 4\nvalue = [4, 0]"] ;
58 -> 418 ;
419 [label="X[437] <= 0.1182\ngini = 0.2778\nsamples = 6\nvalue = [5, 1]"] ;
57 -> 419 ;
420 [label="gini = 0.0\nsamples = 5\nvalue = [5, 0]"] ;
419 -> 420 ;
421 [label="gini = 0.0\nsamples = 1\nvalue = [0, 1]"] ;
419 -> 421 ;
422 [label="X[2866] <= 0.0384\ngini = 0.2778\nsamples = 6\nvalue = [5, 1]"] ;
56 -> 422 ;
423 [label="gini = 0.0\nsamples = 1\nvalue = [0, 1]"] ;
422 -> 423 ;
424 [label="gini = 0.0\nsamples = 5\nvalue = [5, 0]"] ;
422 -> 424 ;
425 [label="X[3496] <= 0.0828\ngini = 0.2778\nsamples = 6\nvalue = [5, 1]"] ;
55 -> 425 ;
426 [label="gini = 0.0\nsamples = 5\nvalue = [5, 0]"] ;
425 -> 426 ;
427 [label="gini = 0.0\nsamples = 1\nvalue = [0, 1]"] ;
425 -> 427 ;
428 [label="X[437] <= 0.0508\ngini = 0.375\nsamples = 8\nvalue = [6, 2]"] ;
54 -> 428 ;
429 [label="gini = 0.0\nsamples = 6\nvalue = [6, 0]"] ;
428 -> 429 ;
430 [label="gini = 0.0\nsamples = 2\nvalue = [0, 2]"] ;
428 -> 430 ;
431 [label="X[1737] <= 0.039\ngini = 0.375\nsamples = 8\nvalue = [6, 2]"] ;
53 -> 431 ;
432 [label="gini = 0.0\nsamples = 6\nvalue = [6, 0]"] ;
431 -> 432 ;
433 [label="gini = 0.0\nsamples = 2\nvalue = [0, 2]"] ;
431 -> 433 ;
434 [label="gini = 0.0\nsamples = 5\nvalue = [5, 0]"] ;
52 -> 434 ;
435 [label="gini = 0.0\nsamples = 5\nvalue = [5, 0]"] ;
51 -> 435 ;
436 [label="X[3716] <= 0.0507\ngini = 0.2449\nsamples = 7\nvalue = [6, 1]"] ;
50 -> 436 ;
437 [label="gini = 0.0\nsamples = 6\nvalue = [6, 0]"] ;
436 -> 437 ;
438 [label="gini = 0.0\nsamples = 1\nvalue = [0, 1]"] ;
436 -> 438 ;
439 [label="X[3553] <= 0.0454\ngini = 0.2449\nsamples = 7\nvalue = [6, 1]"] ;
49 -> 439 ;
440 [label="gini = 0.0\nsamples = 6\nvalue = [6, 0]"] ;
439 -> 440 ;
441 [label="gini = 0.0\nsamples = 1\nvalue = [0, 1]"] ;
439 -> 441 ;
442 [label="gini = 0.0\nsamples = 6\nvalue = [6, 0]"] ;
48 -> 442 ;
443 [label="gini = 0.0\nsamples = 6\nvalue = [6, 0]"] ;
47 -> 443 ;
444 [label="gini = 0.0\nsamples = 6\nvalue = [6, 0]"] ;
46 -> 444 ;
445 [label="gini = 0.0\nsamples = 6\nvalue = [6, 0]"] ;
45 -> 445 ;
446 [label="gini = 0.0\nsamples = 6\nvalue = [6, 0]"] ;
44 -> 446 ;
447 [label="gini = 0.0\nsamples = 6\nvalue = [6, 0]"] ;
43 -> 447 ;
448 [label="gini = 0.0\nsamples = 7\nvalue = [7, 0]"] ;
42 -> 448 ;
449 [label="gini = 0.0\nsamples = 7\nvalue = [7, 0]"] ;
41 -> 449 ;
450 [label="gini = 0.0\nsamples = 7\nvalue = [7, 0]"] ;
40 -> 450 ;
451 [label="X[2462] <= 0.0919\ngini = 0.1975\nsamples = 9\nvalue = [8, 1]"] ;
39 -> 451 ;
452 [label="gini = 0.0\nsamples = 8\nvalue = [8, 0]"] ;
451 -> 452 ;
453 [label="gini = 0.0\nsamples = 1\nvalue = [0, 1]"] ;
451 -> 453 ;
454 [label="X[347] <= 0.1677\ngini = 0.4297\nsamples = 16\nvalue = [11, 5]"] ;
38 -> 454 ;
455 [label="X[1134] <= 0.4247\ngini = 0.1528\nsamples = 12\nvalue = [11, 1]"] ;
454 -> 455 ;
456 [label="gini = 0.0\nsamples = 11\nvalue = [11, 0]"] ;
455 -> 456 ;
457 [label="gini = 0.0\nsamples = 1\nvalue = [0, 1]"] ;
455 -> 457 ;
458 [label="gini = 0.0\nsamples = 4\nvalue = [0, 4]"] ;
454 -> 458 ;
459 [label="gini = 0.0\nsamples = 8\nvalue = [8, 0]"] ;
37 -> 459 ;
460 [label="X[3484] <= 0.0226\ngini = 0.375\nsamples = 16\nvalue = [12, 4]"] ;
36 -> 460 ;
461 [label="gini = 0.0\nsamples = 12\nvalue = [12, 0]"] ;
460 -> 461 ;
462 [label="gini = 0.0\nsamples = 4\nvalue = [0, 4]"] ;
460 -> 462 ;
463 [label="X[437] <= 0.0304\ngini = 0.42\nsamples = 20\nvalue = [14, 6]"] ;
35 -> 463 ;
464 [label="gini = 0.0\nsamples = 14\nvalue = [14, 0]"] ;
463 -> 464 ;
465 [label="gini = 0.0\nsamples = 6\nvalue = [0, 6]"] ;
463 -> 465 ;
466 [label="gini = 0.0\nsamples = 10\nvalue = [10, 0]"] ;
34 -> 466 ;
467 [label="gini = 0.0\nsamples = 10\nvalue = [10, 0]"] ;
33 -> 467 ;
468 [label="gini = 0.0\nsamples = 10\nvalue = [10, 0]"] ;
32 -> 468 ;
469 [label="X[292] <= 0.038\ngini = 0.2449\nsamples = 14\nvalue = [12, 2]"] ;
31 -> 469 ;
470 [label="gini = 0.0\nsamples = 12\nvalue = [12, 0]"] ;
469 -> 470 ;
471 [label="gini = 0.0\nsamples = 2\nvalue = [0, 2]"] ;
469 -> 471 ;
472 [label="X[3484] <= 0.0327\ngini = 0.4913\nsamples = 76\nvalue = [33, 43]"] ;
30 -> 472 ;
473 [label="X[1164] <= 0.028\ngini = 0.4297\nsamples = 48\nvalue = [33, 15]"] ;
472 -> 473 ;
474 [label="X[2250] <= 0.0278\ngini = 0.3367\nsamples = 42\nvalue = [33, 9]"] ;
473 -> 474 ;
475 [label="X[2354] <= 0.0635\ngini = 0.2285\nsamples = 38\nvalue = [33, 5]"] ;
474 -> 475 ;
476 [label="X[1614] <= 0.1757\ngini = 0.1078\nsamples = 35\nvalue = [33, 2]"] ;
475 -> 476 ;
477 [label="gini = 0.0\nsamples = 33\nvalue = [33, 0]"] ;
476 -> 477 ;
478 [label="gini = 0.0\nsamples = 2\nvalue = [0, 2]"] ;
476 -> 478 ;
479 [label="gini = 0.0\nsamples = 3\nvalue = [0, 3]"] ;
475 -> 479 ;
480 [label="gini = 0.0\nsamples = 4\nvalue = [0, 4]"] ;
474 -> 480 ;
481 [label="gini = 0.0\nsamples = 6\nvalue = [0, 6]"] ;
473 -> 481 ;
482 [label="gini = 0.0\nsamples = 28\nvalue = [0, 28]"] ;
472 -> 482 ;
483 [label="gini = 0.0\nsamples = 13\nvalue = [13, 0]"] ;
29 -> 483 ;
484 [label="gini = 0.0\nsamples = 14\nvalue = [14, 0]"] ;
28 -> 484 ;
485 [label="gini = 0.0\nsamples = 14\nvalue = [14, 0]"] ;
27 -> 485 ;
486 [label="gini = 0.0\nsamples = 14\nvalue = [14, 0]"] ;
26 -> 486 ;
487 [label="gini = 0.0\nsamples = 16\nvalue = [16, 0]"] ;
25 -> 487 ;
488 [label="gini = 0.0\nsamples = 17\nvalue = [17, 0]"] ;
24 -> 488 ;
489 [label="X[3631] <= 0.022\ngini = 0.375\nsamples = 32\nvalue = [24, 8]"] ;
23 -> 489 ;
490 [label="gini = 0.0\nsamples = 24\nvalue = [24, 0]"] ;
489 -> 490 ;
491 [label="gini = 0.0\nsamples = 8\nvalue = [0, 8]"] ;
489 -> 491 ;
492 [label="X[614] <= 0.0587\ngini = 0.095\nsamples = 20\nvalue = [19, 1]"] ;
22 -> 492 ;
493 [label="gini = 0.0\nsamples = 19\nvalue = [19, 0]"] ;
492 -> 493 ;
494 [label="gini = 0.0\nsamples = 1\nvalue = [0, 1]"] ;
492 -> 494 ;
495 [label="X[2920] <= 0.048\ngini = 0.32\nsamples = 30\nvalue = [24, 6]"] ;
21 -> 495 ;
496 [label="gini = 0.0\nsamples = 24\nvalue = [24, 0]"] ;
495 -> 496 ;
497 [label="gini = 0.0\nsamples = 6\nvalue = [0, 6]"] ;
495 -> 497 ;
498 [label="X[2816] <= 0.003\ngini = 0.375\nsamples = 44\nvalue = [33, 11]"] ;
20 -> 498 ;
499 [label="gini = 0.0\nsamples = 8\nvalue = [0, 8]"] ;
498 -> 499 ;
500 [label="X[2816] <= 0.0744\ngini = 0.1528\nsamples = 36\nvalue = [33, 3]"] ;
498 -> 500 ;
501 [label="gini = 0.0\nsamples = 33\nvalue = [33, 0]"] ;
500 -> 501 ;
502 [label="gini = 0.0\nsamples = 3\nvalue = [0, 3]"] ;
500 -> 502 ;
503 [label="X[3688] <= 0.0778\ngini = 0.492\nsamples = 87\nvalue = [49, 38]"] ;
19 -> 503 ;
504 [label="X[1270] <= 0.0174\ngini = 0.4975\nsamples = 71\nvalue = [33, 38]"] ;
503 -> 504 ;
505 [label="X[2635] <= 0.0347\ngini = 0.4925\nsamples = 57\nvalue = [32, 25]"] ;
504 -> 505 ;
506 [label="X[1900] <= 0.1331\ngini = 0.4444\nsamples = 48\nvalue = [32, 16]"] ;
505 -> 506 ;
507 [label="X[2248] <= 0.1322\ngini = 0.3427\nsamples = 41\nvalue = [32, 9]"] ;
506 -> 507 ;
508 [label="X[1019] <= 0.0851\ngini = 0.2337\nsamples = 37\nvalue = [32, 5]"] ;
507 -> 508 ;
509 [label="X[2618] <= 0.0792\ngini = 0.1107\nsamples = 34\nvalue = [32, 2]"] ;
508 -> 509 ;
510 [label="gini = 0.0\nsamples = 32\nvalue = [32, 0]"] ;
509 -> 510 ;
511 [label="gini = 0.0\nsamples = 2\nvalue = [0, 2]"] ;
509 -> 511 ;
512 [label="gini = 0.0\nsamples = 3\nvalue = [0, 3]"] ;
508 -> 512 ;
513 [label="gini = 0.0\nsamples = 4\nvalue = [0, 4]"] ;
507 -> 513 ;
514 [label="gini = 0.0\nsamples = 7\nvalue = [0, 7]"] ;
506 -> 514 ;
515 [label="gini = 0.0\nsamples = 9\nvalue = [0, 9]"] ;
505 -> 515 ;
516 [label="X[2140] <= 0.0977\ngini = 0.1327\nsamples = 14\nvalue = [1, 13]"] ;
504 -> 516 ;
517 [label="gini = 0.0\nsamples = 13\nvalue = [0, 13]"] ;
516 -> 517 ;
518 [label="gini = 0.0\nsamples = 1\nvalue = [1, 0]"] ;
516 -> 518 ;
519 [label="gini = 0.0\nsamples = 16\nvalue = [16, 0]"] ;
503 -> 519 ;
520 [label="X[686] <= 0.0909\ngini = 0.074\nsamples = 26\nvalue = [25, 1]"] ;
18 -> 520 ;
521 [label="gini = 0.0\nsamples = 25\nvalue = [25, 0]"] ;
520 -> 521 ;
522 [label="gini = 0.0\nsamples = 1\nvalue = [0, 1]"] ;
520 -> 522 ;
523 [label="gini = 0.0\nsamples = 24\nvalue = [24, 0]"] ;
17 -> 523 ;
524 [label="X[715] <= 0.015\ngini = 0.1172\nsamples = 32\nvalue = [30, 2]"] ;
16 -> 524 ;
525 [label="gini = 0.0\nsamples = 30\nvalue = [30, 0]"] ;
524 -> 525 ;
526 [label="gini = 0.0\nsamples = 2\nvalue = [0, 2]"] ;
524 -> 526 ;
527 [label="gini = 0.0\nsamples = 28\nvalue = [28, 0]"] ;
15 -> 527 ;
528 [label="X[2320] <= 0.0276\ngini = 0.2952\nsamples = 50\nvalue = [41, 9]"] ;
14 -> 528 ;
529 [label="X[3553] <= 0.1563\ngini = 0.0887\nsamples = 43\nvalue = [41, 2]"] ;
528 -> 529 ;
530 [label="gini = 0.0\nsamples = 41\nvalue = [41, 0]"] ;
529 -> 530 ;
531 [label="gini = 0.0\nsamples = 2\nvalue = [0, 2]"] ;
529 -> 531 ;
532 [label="gini = 0.0\nsamples = 7\nvalue = [0, 7]"] ;
528 -> 532 ;
533 [label="X[1274] <= 0.1303\ngini = 0.4813\nsamples = 414\nvalue = [167, 247]"] ;
13 -> 533 ;
534 [label="X[437] <= 0.0566\ngini = 0.4972\nsamples = 359\nvalue = [166, 193]"] ;
533 -> 534 ;
535 [label="X[2241] <= 0.0414\ngini = 0.4999\nsamples = 328\nvalue = [166, 162]"] ;
534 -> 535 ;
536 [label="X[2819] <= 0.0268\ngini = 0.4956\nsamples = 287\nvalue = [130, 157]"] ;
535 -> 536 ;
537 [label="X[1164] <= 0.0809\ngini = 0.5\nsamples = 256\nvalue = [127, 129]"] ;
536 -> 537 ;
538 [label="X[2019] <= 0.1311\ngini = 0.4977\nsamples = 238\nvalue = [127, 111]"] ;
537 -> 538 ;
539 [label="X[2583] <= 0.1545\ngini = 0.4903\nsamples = 223\nvalue = [127, 96]"] ;
538 -> 539 ;
540 [label="X[1921] <= 0.0885\ngini = 0.4759\nsamples = 205\nvalue = [125, 80]"] ;
539 -> 540 ;
541 [label="X[3471] <= 0.181\ngini = 0.462\nsamples = 196\nvalue = [125, 71]"] ;
540 -> 541 ;
542 [label="X[1783] <= 0.1291\ngini = 0.4136\nsamples = 154\nvalue = [109, 45]"] ;
541 -> 542 ;
543 [label="X[1958] <= 0.1529\ngini = 0.3784\nsamples = 146\nvalue = [109, 37]"] ;
542 -> 543 ;
544 [label="X[2445] <= 0.14\ngini = 0.3509\nsamples = 141\nvalue = [109, 32]"] ;
543 -> 544 ;
545 [label="X[3540] <= 0.1216\ngini = 0.3182\nsamples = 136\nvalue = [109, 27]"] ;
544 -> 545 ;
546 [label="X[686] <= 0.1185\ngini = 0.2878\nsamples = 132\nvalue = [109, 23]"] ;
545 -> 546 ;
547 [label="X[2665] <= 0.1904\ngini = 0.2528\nsamples = 128\nvalue = [109, 19]"] ;
546 -> 547 ;
548 [label="X[1433] <= 0.1551\ngini = 0.2127\nsamples = 124\nvalue = [109, 15]"] ;
547 -> 548 ;
549 [label="X[1304] <= 0.1125\ngini = 0.1665\nsamples = 120\nvalue = [109, 11]"] ;
548 -> 549 ;
550 [label="X[2635] <= 0.191\ngini = 0.1274\nsamples = 117\nvalue = [109, 8]"] ;
549 -> 550 ;
551 [label="X[2098] <= 0.2071\ngini = 0.0846\nsamples = 113\nvalue = [108, 5]"] ;
550 -> 551 ;
552 [label="X[2889] <= 0.0933\ngini = 0.0526\nsamples = 111\nvalue = [108, 3]"] ;
551 -> 552 ;
553 [label="X[3732] <= 0.2863\ngini = 0.0182\nsamples = 109\nvalue = [108, 1]"] ;
552 -> 553 ;
554 [label="gini = 0.0\nsamples = 108\nvalue = [108, 0]"] ;
553 -> 554 ;
555 [label="gini = 0.0\nsamples = 1\nvalue = [0, 1]"] ;
553 -> 555 ;
556 [label="gini = 0.0\nsamples = 2\nvalue = [0, 2]"] ;
552 -> 556 ;
557 [label="gini = 0.0\nsamples = 2\nvalue = [0, 2]"] ;
551 -> 557 ;
558 [label="X[2250] <= 0.0989\ngini = 0.375\nsamples = 4\nvalue = [1, 3]"] ;
550 -> 558 ;
559 [label="gini = 0.0\nsamples = 3\nvalue = [0, 3]"] ;
558 -> 559 ;
560 [label="gini = 0.0\nsamples = 1\nvalue = [1, 0]"] ;
558 -> 560 ;
561 [label="gini = 0.0\nsamples = 3\nvalue = [0, 3]"] ;
549 -> 561 ;
562 [label="gini = 0.0\nsamples = 4\nvalue = [0, 4]"] ;
548 -> 562 ;
563 [label="gini = 0.0\nsamples = 4\nvalue = [0, 4]"] ;
547 -> 563 ;
564 [label="gini = 0.0\nsamples = 4\nvalue = [0, 4]"] ;
546 -> 564 ;
565 [label="gini = 0.0\nsamples = 4\nvalue = [0, 4]"] ;
545 -> 565 ;
566 [label="gini = 0.0\nsamples = 5\nvalue = [0, 5]"] ;
544 -> 566 ;
567 [label="gini = 0.0\nsamples = 5\nvalue = [0, 5]"] ;
543 -> 567 ;
568 [label="gini = 0.0\nsamples = 8\nvalue = [0, 8]"] ;
542 -> 568 ;
569 [label="X[2816] <= 0.1928\ngini = 0.4717\nsamples = 42\nvalue = [16, 26]"] ;
541 -> 569 ;
570 [label="X[1917] <= 0.179\ngini = 0.3343\nsamples = 33\nvalue = [7, 26]"] ;
569 -> 570 ;
571 [label="X[651] <= 0.1237\ngini = 0.2706\nsamples = 31\nvalue = [5, 26]"] ;
570 -> 571 ;
572 [label="X[468] <= 0.1929\ngini = 0.2311\nsamples = 30\nvalue = [4, 26]"] ;
571 -> 572 ;
573 [label="X[3471] <= 0.2598\ngini = 0.1855\nsamples = 29\nvalue = [3, 26]"] ;
572 -> 573 ;
574 [label="X[3471] <= 0.1945\ngini = 0.0907\nsamples = 21\nvalue = [1, 20]"] ;
573 -> 574 ;
575 [label="X[3471] <= 0.1918\ngini = 0.2449\nsamples = 7\nvalue = [1, 6]"] ;
574 -> 575 ;
576 [label="gini = 0.0\nsamples = 6\nvalue = [0, 6]"] ;
575 -> 576 ;
577 [label="gini = 0.0\nsamples = 1\nvalue = [1, 0]"] ;
575 -> 577 ;
578 [label="gini = 0.0\nsamples = 14\nvalue = [0, 14]"] ;
574 -> 578 ;
579 [label="X[3471] <= 0.6388\ngini = 0.375\nsamples = 8\nvalue = [2, 6]"] ;
573 -> 579 ;
580 [label="gini = 0.0\nsamples = 2\nvalue = [2, 0]"] ;
579 -> 580 ;
581 [label="gini = 0.0\nsamples = 6\nvalue = [0, 6]"] ;
579 -> 581 ;
582 [label="gini = 0.0\nsamples = 1\nvalue = [1, 0]"] ;
572 -> 582 ;
583 [label="gini = 0.0\nsamples = 1\nvalue = [1, 0]"] ;
571 -> 583 ;
584 [label="gini = 0.0\nsamples = 2\nvalue = [2, 0]"] ;
570 -> 584 ;
585 [label="gini = 0.0\nsamples = 9\nvalue = [9, 0]"] ;
569 -> 585 ;
586 [label="gini = 0.0\nsamples = 9\nvalue = [0, 9]"] ;
540 -> 586 ;
587 [label="X[2121] <= 0.1771\ngini = 0.1975\nsamples = 18\nvalue = [2, 16]"] ;
539 -> 587 ;
588 [label="gini = 0.0\nsamples = 16\nvalue = [0, 16]"] ;
587 -> 588 ;
589 [label="gini = 0.0\nsamples = 2\nvalue = [2, 0]"] ;
587 -> 589 ;
590 [label="gini = 0.0\nsamples = 15\nvalue = [0, 15]"] ;
538 -> 590 ;
591 [label="gini = 0.0\nsamples = 18\nvalue = [0, 18]"] ;
537 -> 591 ;
592 [label="X[2250] <= 0.0444\ngini = 0.1748\nsamples = 31\nvalue = [3, 28]"] ;
536 -> 592 ;
593 [label="X[2121] <= 0.1199\ngini = 0.0666\nsamples = 29\nvalue = [1, 28]"] ;
592 -> 593 ;
594 [label="gini = 0.0\nsamples = 28\nvalue = [0, 28]"] ;
593 -> 594 ;
595 [label="gini = 0.0\nsamples = 1\nvalue = [1, 0]"] ;
593 -> 595 ;
596 [label="gini = 0.0\nsamples = 2\nvalue = [2, 0]"] ;
592 -> 596 ;
597 [label="X[738] <= 0.1307\ngini = 0.2142\nsamples = 41\nvalue = [36, 5]"] ;
535 -> 597 ;
598 [label="X[2041] <= 0.279\ngini = 0.0997\nsamples = 38\nvalue = [36, 2]"] ;
597 -> 598 ;
599 [label="gini = 0.0\nsamples = 36\nvalue = [36, 0]"] ;
598 -> 599 ;
600 [label="gini = 0.0\nsamples = 2\nvalue = [0, 2]"] ;
598 -> 600 ;
601 [label="gini = 0.0\nsamples = 3\nvalue = [0, 3]"] ;
597 -> 601 ;
602 [label="gini = 0.0\nsamples = 31\nvalue = [0, 31]"] ;
534 -> 602 ;
603 [label="X[570] <= 0.1155\ngini = 0.0357\nsamples = 55\nvalue = [1, 54]"] ;
533 -> 603 ;
604 [label="gini = 0.0\nsamples = 54\nvalue = [0, 54]"] ;
603 -> 604 ;
605 [label="gini = 0.0\nsamples = 1\nvalue = [1, 0]"] ;
603 -> 605 ;
606 [label="X[1737] <= 0.0694\ngini = 0.4924\nsamples = 381\nvalue = [167, 214]"] ;
12 -> 606 ;
607 [label="X[1921] <= 0.0392\ngini = 0.4957\nsamples = 302\nvalue = [165, 137]"] ;
606 -> 607 ;
608 [label="X[437] <= 0.0168\ngini = 0.4312\nsamples = 213\nvalue = [146, 67]"] ;
607 -> 608 ;
609 [label="X[1081] <= 0.0256\ngini = 0.3602\nsamples = 191\nvalue = [146, 45]"] ;
608 -> 609 ;
610 [label="X[292] <= 0.0595\ngini = 0.2765\nsamples = 175\nvalue = [146, 29]"] ;
609 -> 610 ;
611 [label="X[173] <= 0.027\ngini = 0.2142\nsamples = 164\nvalue = [144, 20]"] ;
610 -> 611 ;
612 [label="X[1783] <= 0.1319\ngini = 0.1437\nsamples = 154\nvalue = [142, 12]"] ;
611 -> 612 ;
613 [label="X[1384] <= 0.0518\ngini = 0.0895\nsamples = 149\nvalue = [142, 7]"] ;
612 -> 613 ;
614 [label="X[686] <= 0.1357\ngini = 0.0533\nsamples = 146\nvalue = [142, 4]"] ;
613 -> 614 ;
615 [label="X[3538] <= 0.1015\ngini = 0.0139\nsamples = 143\nvalue = [142, 1]"] ;
614 -> 615 ;
616 [label="gini = 0.0\nsamples = 142\nvalue = [142, 0]"] ;
615 -> 616 ;
617 [label="gini = 0.0\nsamples = 1\nvalue = [0, 1]"] ;
615 -> 617 ;
618 [label="gini = 0.0\nsamples = 3\nvalue = [0, 3]"] ;
614 -> 618 ;
619 [label="gini = 0.0\nsamples = 3\nvalue = [0, 3]"] ;
613 -> 619 ;
620 [label="gini = 0.0\nsamples = 5\nvalue = [0, 5]"] ;
612 -> 620 ;
621 [label="X[3156] <= 0.0207\ngini = 0.32\nsamples = 10\nvalue = [2, 8]"] ;
611 -> 621 ;
622 [label="gini = 0.0\nsamples = 8\nvalue = [0, 8]"] ;
621 -> 622 ;
623 [label="gini = 0.0\nsamples = 2\nvalue = [2, 0]"] ;
621 -> 623 ;
624 [label="X[3009] <= 0.0473\ngini = 0.2975\nsamples = 11\nvalue = [2, 9]"] ;
610 -> 624 ;
625 [label="gini = 0.0\nsamples = 9\nvalue = [0, 9]"] ;
624 -> 625 ;
626 [label="gini = 0.0\nsamples = 2\nvalue = [2, 0]"] ;
624 -> 626 ;
627 [label="gini = 0.0\nsamples = 16\nvalue = [0, 16]"] ;
609 -> 627 ;
628 [label="gini = 0.0\nsamples = 22\nvalue = [0, 22]"] ;
608 -> 628 ;
629 [label="X[2848] <= 0.0543\ngini = 0.3358\nsamples = 89\nvalue = [19, 70]"] ;
607 -> 629 ;
630 [label="X[2902] <= 0.0872\ngini = 0.2642\nsamples = 83\nvalue = [13, 70]"] ;
629 -> 630 ;
631 [label="X[1920] <= 0.053\ngini = 0.1841\nsamples = 78\nvalue = [8, 70]"] ;
630 -> 631 ;
632 [label="X[1137] <= 0.059\ngini = 0.1063\nsamples = 71\nvalue = [4, 67]"] ;
631 -> 632 ;
633 [label="gini = 0.0\nsamples = 64\nvalue = [0, 64]"] ;
632 -> 633 ;
634 [label="X[3197] <= 0.0546\ngini = 0.4898\nsamples = 7\nvalue = [4, 3]"] ;
632 -> 634 ;
635 [label="gini = 0.0\nsamples = 4\nvalue = [4, 0]"] ;
634 -> 635 ;
636 [label="gini = 0.0\nsamples = 3\nvalue = [0, 3]"] ;
634 -> 636 ;
637 [label="X[3471] <= 0.0555\ngini = 0.4898\nsamples = 7\nvalue = [4, 3]"] ;
631 -> 637 ;
638 [label="gini = 0.0\nsamples = 4\nvalue = [4, 0]"] ;
637 -> 638 ;
639 [label="gini = 0.0\nsamples = 3\nvalue = [0, 3]"] ;
637 -> 639 ;
640 [label="gini = 0.0\nsamples = 5\nvalue = [5, 0]"] ;
630 -> 640 ;
641 [label="gini = 0.0\nsamples = 6\nvalue = [6, 0]"] ;
629 -> 641 ;
642 [label="X[1635] <= 0.0601\ngini = 0.0494\nsamples = 79\nvalue = [2, 77]"] ;
606 -> 642 ;
643 [label="gini = 0.0\nsamples = 77\nvalue = [0, 77]"] ;
642 -> 643 ;
644 [label="gini = 0.0\nsamples = 2\nvalue = [2, 0]"] ;
642 -> 644 ;
645 [label="gini = 0.0\nsamples = 51\nvalue = [51, 0]"] ;
11 -> 645 ;
646 [label="X[715] <= 0.1378\ngini = 0.4669\nsamples = 245\nvalue = [154, 91]"] ;
10 -> 646 ;
647 [label="X[1674] <= 0.0491\ngini = 0.4918\nsamples = 133\nvalue = [58, 75]"] ;
646 -> 647 ;
648 [label="X[1107] <= 0.0228\ngini = 0.3423\nsamples = 73\nvalue = [16, 57]"] ;
647 -> 648 ;
649 [label="X[2009] <= 0.0434\ngini = 0.2386\nsamples = 65\nvalue = [9, 56]"] ;
648 -> 649 ;
650 [label="X[1668] <= 0.0495\ngini = 0.1505\nsamples = 61\nvalue = [5, 56]"] ;
649 -> 650 ;
651 [label="X[2292] <= 0.147\ngini = 0.0677\nsamples = 57\nvalue = [2, 55]"] ;
650 -> 651 ;
652 [label="gini = 0.0\nsamples = 55\nvalue = [0, 55]"] ;
651 -> 652 ;
653 [label="gini = 0.0\nsamples = 2\nvalue = [2, 0]"] ;
651 -> 653 ;
654 [label="X[3716] <= 0.1507\ngini = 0.375\nsamples = 4\nvalue = [3, 1]"] ;
650 -> 654 ;
655 [label="gini = 0.0\nsamples = 3\nvalue = [3, 0]"] ;
654 -> 655 ;
656 [label="gini = 0.0\nsamples = 1\nvalue = [0, 1]"] ;
654 -> 656 ;
657 [label="gini = 0.0\nsamples = 4\nvalue = [4, 0]"] ;
649 -> 657 ;
658 [label="X[651] <= 0.0866\ngini = 0.2188\nsamples = 8\nvalue = [7, 1]"] ;
648 -> 658 ;
659 [label="gini = 0.0\nsamples = 7\nvalue = [7, 0]"] ;
658 -> 659 ;
660 [label="gini = 0.0\nsamples = 1\nvalue = [0, 1]"] ;
658 -> 660 ;
661 [label="X[1263] <= 0.0966\ngini = 0.42\nsamples = 60\nvalue = [42, 18]"] ;
647 -> 661 ;
662 [label="X[3183] <= 0.0348\ngini = 0.3107\nsamples = 52\nvalue = [42, 10]"] ;
661 -> 662 ;
663 [label="X[2848] <= 0.1584\ngini = 0.0907\nsamples = 42\nvalue = [40, 2]"] ;
662 -> 663 ;
664 [label="gini = 0.0\nsamples = 40\nvalue = [40, 0]"] ;
663 -> 664 ;
665 [label="gini = 0.0\nsamples = 2\nvalue = [0, 2]"] ;
663 -> 665 ;
666 [label="X[1357] <= 0.0887\ngini = 0.32\nsamples = 10\nvalue = [2, 8]"] ;
662 -> 666 ;
667 [label="gini = 0.0\nsamples = 8\nvalue = [0, 8]"] ;
666 -> 667 ;
668 [label="gini = 0.0\nsamples = 2\nvalue = [2, 0]"] ;
666 -> 668 ;
669 [label="gini = 0.0\nsamples = 8\nvalue = [0, 8]"] ;
661 -> 669 ;
670 [label="X[1631] <= 0.1933\ngini = 0.2449\nsamples = 112\nvalue = [96, 16]"] ;
646 -> 670 ;
671 [label="X[2493] <= 0.1004\ngini = 0.1567\nsamples = 105\nvalue = [96, 9]"] ;
670 -> 671 ;
672 [label="X[1737] <= 0.0903\ngini = 0.0768\nsamples = 100\nvalue = [96, 4]"] ;
671 -> 672 ;
673 [label="gini = 0.0\nsamples = 96\nvalue = [96, 0]"] ;
672 -> 673 ;
674 [label="gini = 0.0\nsamples = 4\nvalue = [0, 4]"] ;
672 -> 674 ;
675 [label="gini = 0.0\nsamples = 5\nvalue = [0, 5]"] ;
671 -> 675 ;
676 [label="gini = 0.0\nsamples = 7\nvalue = [0, 7]"] ;
670 -> 676 ;
677 [label="X[1164] <= 0.0529\ngini = 0.4226\nsamples = 211\nvalue = [147, 64]"] ;
9 -> 677 ;
678 [label="X[2806] <= 0.0331\ngini = 0.2474\nsamples = 166\nvalue = [142, 24]"] ;
677 -> 678 ;
679 [label="X[437] <= 0.018\ngini = 0.1537\nsamples = 155\nvalue = [142, 13]"] ;
678 -> 679 ;
680 [label="X[2988] <= 0.0395\ngini = 0.0895\nsamples = 149\nvalue = [142, 7]"] ;
679 -> 680 ;
681 [label="X[3727] <= 0.0751\ngini = 0.0405\nsamples = 145\nvalue = [142, 3]"] ;
680 -> 681 ;
682 [label="X[3228] <= 0.0601\ngini = 0.0139\nsamples = 143\nvalue = [142, 1]"] ;
681 -> 682 ;
683 [label="gini = 0.0\nsamples = 142\nvalue = [142, 0]"] ;
682 -> 683 ;
684 [label="gini = 0.0\nsamples = 1\nvalue = [0, 1]"] ;
682 -> 684 ;
685 [label="gini = 0.0\nsamples = 2\nvalue = [0, 2]"] ;
681 -> 685 ;
686 [label="gini = 0.0\nsamples = 4\nvalue = [0, 4]"] ;
680 -> 686 ;
687 [label="gini = 0.0\nsamples = 6\nvalue = [0, 6]"] ;
679 -> 687 ;
688 [label="gini = 0.0\nsamples = 11\nvalue = [0, 11]"] ;
678 -> 688 ;
689 [label="X[1197] <= 0.0508\ngini = 0.1975\nsamples = 45\nvalue = [5, 40]"] ;
677 -> 689 ;
690 [label="gini = 0.0\nsamples = 40\nvalue = [0, 40]"] ;
689 -> 690 ;
691 [label="gini = 0.0\nsamples = 5\nvalue = [5, 0]"] ;
689 -> 691 ;
692 [label="gini = 0.0\nsamples = 110\nvalue = [110, 0]"] ;
8 -> 692 ;
693 [label="gini = 0.0\nsamples = 113\nvalue = [113, 0]"] ;
7 -> 693 ;
694 [label="X[997] <= 0.0441\ngini = 0.321\nsamples = 244\nvalue = [195, 49]"] ;
6 -> 694 ;
695 [label="X[293] <= 0.0274\ngini = 0.2476\nsamples = 228\nvalue = [195, 33]"] ;
694 -> 695 ;
696 [label="X[1674] <= 0.0788\ngini = 0.1952\nsamples = 219\nvalue = [195, 24]"] ;
695 -> 696 ;
697 [label="X[2623] <= 0.0944\ngini = 0.1193\nsamples = 204\nvalue = [191, 13]"] ;
696 -> 697 ;
698 [label="X[3651] <= 0.1044\ngini = 0.0859\nsamples = 200\nvalue = [191, 9]"] ;
697 -> 698 ;
699 [label="X[3160] <= 0.1585\ngini = 0.0497\nsamples = 196\nvalue = [191, 5]"] ;
698 -> 699 ;
700 [label="X[1009] <= 0.0375\ngini = 0.0205\nsamples = 193\nvalue = [191, 2]"] ;
699 -> 700 ;
701 [label="gini = 0.0\nsamples = 191\nvalue = [191, 0]"] ;
700 -> 701 ;
702 [label="gini = 0.0\nsamples = 2\nvalue = [0, 2]"] ;
700 -> 702 ;
703 [label="gini = 0.0\nsamples = 3\nvalue = [0, 3]"] ;
699 -> 703 ;
704 [label="gini = 0.0\nsamples = 4\nvalue = [0, 4]"] ;
698 -> 704 ;
705 [label="gini = 0.0\nsamples = 4\nvalue = [0, 4]"] ;
697 -> 705 ;
706 [label="X[3471] <= 0.0147\ngini = 0.3911\nsamples = 15\nvalue = [4, 11]"] ;
696 -> 706 ;
707 [label="gini = 0.0\nsamples = 11\nvalue = [0, 11]"] ;
706 -> 707 ;
708 [label="gini = 0.0\nsamples = 4\nvalue = [4, 0]"] ;
706 -> 708 ;
709 [label="gini = 0.0\nsamples = 9\nvalue = [0, 9]"] ;
695 -> 709 ;
710 [label="gini = 0.0\nsamples = 16\nvalue = [0, 16]"] ;
694 -> 710 ;
711 [label="X[1115] <= 0.0565\ngini = 0.1157\nsamples = 227\nvalue = [213, 14]"] ;
5 -> 711 ;
712 [label="X[3118] <= 0.079\ngini = 0.0274\nsamples = 216\nvalue = [213, 3]"] ;
711 -> 712 ;
713 [label="X[3540] <= 0.0468\ngini = 0.0093\nsamples = 214\nvalue = [213, 1]"] ;
712 -> 713 ;
714 [label="gini = 0.0\nsamples = 213\nvalue = [213, 0]"] ;
713 -> 714 ;
715 [label="gini = 0.0\nsamples = 1\nvalue = [0, 1]"] ;
713 -> 715 ;
716 [label="gini = 0.0\nsamples = 2\nvalue = [0, 2]"] ;
712 -> 716 ;
717 [label="gini = 0.0\nsamples = 11\nvalue = [0, 11]"] ;
711 -> 717 ;
718 [label="X[1164] <= 0.0131\ngini = 0.3083\nsamples = 520\nvalue = [421, 99]"] ;
4 -> 718 ;
719 [label="X[997] <= 0.0337\ngini = 0.1402\nsamples = 435\nvalue = [402, 33]"] ;
718 -> 719 ;
720 [label="X[437] <= 0.0161\ngini = 0.0944\nsamples = 423\nvalue = [402, 21]"] ;
719 -> 720 ;
721 [label="X[2830] <= 0.0616\ngini = 0.0563\nsamples = 414\nvalue = [402, 12]"] ;
720 -> 721 ;
722 [label="X[247] <= 0.0309\ngini = 0.029\nsamples = 408\nvalue = [402, 6]"] ;
721 -> 722 ;
723 [label="gini = 0.0\nsamples = 402\nvalue = [402, 0]"] ;
722 -> 723 ;
724 [label="gini = 0.0\nsamples = 6\nvalue = [0, 6]"] ;
722 -> 724 ;
725 [label="gini = 0.0\nsamples = 6\nvalue = [0, 6]"] ;
721 -> 725 ;
726 [label="gini = 0.0\nsamples = 9\nvalue = [0, 9]"] ;
720 -> 726 ;
727 [label="gini = 0.0\nsamples = 12\nvalue = [0, 12]"] ;
719 -> 727 ;
728 [label="X[1471] <= 0.0244\ngini = 0.3471\nsamples = 85\nvalue = [19, 66]"] ;
718 -> 728 ;
729 [label="X[3623] <= 0.0512\ngini = 0.2285\nsamples = 76\nvalue = [10, 66]"] ;
728 -> 729 ;
730 [label="X[3531] <= 0.0182\ngini = 0.1309\nsamples = 71\nvalue = [5, 66]"] ;
729 -> 730 ;
731 [label="gini = 0.0\nsamples = 63\nvalue = [0, 63]"] ;
730 -> 731 ;
732 [label="X[437] <= 0.029\ngini = 0.4688\nsamples = 8\nvalue = [5, 3]"] ;
730 -> 732 ;
733 [label="gini = 0.0\nsamples = 5\nvalue = [5, 0]"] ;
732 -> 733 ;
734 [label="gini = 0.0\nsamples = 3\nvalue = [0, 3]"] ;
732 -> 734 ;
735 [label="gini = 0.0\nsamples = 5\nvalue = [5, 0]"] ;
729 -> 735 ;
736 [label="gini = 0.0\nsamples = 9\nvalue = [9, 0]"] ;
728 -> 736 ;
737 [label="X[1737] <= 0.0391\ngini = 0.3249\nsamples = 867\nvalue = [690, 177]"] ;
3 -> 737 ;
738 [label="X[3158] <= 0.0451\ngini = 0.2077\nsamples = 756\nvalue = [667, 89]"] ;
737 -> 738 ;
739 [label="X[437] <= 0.0175\ngini = 0.132\nsamples = 704\nvalue = [654, 50]"] ;
738 -> 739 ;
740 [label="X[997] <= 0.0323\ngini = 0.0989\nsamples = 690\nvalue = [654, 36]"] ;
739 -> 740 ;
741 [label="X[2064] <= 0.0377\ngini = 0.063\nsamples = 676\nvalue = [654, 22]"] ;
740 -> 741 ;
742 [label="X[3164] <= 0.1267\ngini = 0.0438\nsamples = 669\nvalue = [654, 15]"] ;
741 -> 742 ;
743 [label="X[1899] <= 0.0355\ngini = 0.0268\nsamples = 663\nvalue = [654, 9]"] ;
742 -> 743 ;
744 [label="X[2881] <= 0.0834\ngini = 0.0091\nsamples = 656\nvalue = [653, 3]"] ;
743 -> 744 ;
745 [label="X[2968] <= 0.0657\ngini = 0.0031\nsamples = 654\nvalue = [653, 1]"] ;
744 -> 745 ;
746 [label="gini = 0.0\nsamples = 653\nvalue = [653, 0]"] ;
745 -> 746 ;
747 [label="gini = 0.0\nsamples = 1\nvalue = [0, 1]"] ;
745 -> 747 ;
748 [label="gini = 0.0\nsamples = 2\nvalue = [0, 2]"] ;
744 -> 748 ;
749 [label="X[2422] <= 0.0811\ngini = 0.2449\nsamples = 7\nvalue = [1, 6]"] ;
743 -> 749 ;
750 [label="gini = 0.0\nsamples = 6\nvalue = [0, 6]"] ;
749 -> 750 ;
751 [label="gini = 0.0\nsamples = 1\nvalue = [1, 0]"] ;
749 -> 751 ;
752 [label="gini = 0.0\nsamples = 6\nvalue = [0, 6]"] ;
742 -> 752 ;
753 [label="gini = 0.0\nsamples = 7\nvalue = [0, 7]"] ;
741 -> 753 ;
754 [label="gini = 0.0\nsamples = 14\nvalue = [0, 14]"] ;
740 -> 754 ;
755 [label="gini = 0.0\nsamples = 14\nvalue = [0, 14]"] ;
739 -> 755 ;
756 [label="X[3623] <= 0.0276\ngini = 0.375\nsamples = 52\nvalue = [13, 39]"] ;
738 -> 756 ;
757 [label="X[3649] <= 0.0305\ngini = 0.0928\nsamples = 41\nvalue = [2, 39]"] ;
756 -> 757 ;
758 [label="gini = 0.0\nsamples = 39\nvalue = [0, 39]"] ;
757 -> 758 ;
759 [label="gini = 0.0\nsamples = 2\nvalue = [2, 0]"] ;
757 -> 759 ;
760 [label="gini = 0.0\nsamples = 11\nvalue = [11, 0]"] ;
756 -> 760 ;
761 [label="X[2346] <= 0.0419\ngini = 0.3285\nsamples = 111\nvalue = [23, 88]"] ;
737 -> 761 ;
762 [label="X[2345] <= 0.1376\ngini = 0.2243\nsamples = 101\nvalue = [13, 88]"] ;
761 -> 762 ;
763 [label="X[946] <= 0.0203\ngini = 0.1195\nsamples = 94\nvalue = [6, 88]"] ;
762 -> 763 ;
764 [label="X[2982] <= 0.0535\ngini = 0.0222\nsamples = 89\nvalue = [1, 88]"] ;
763 -> 764 ;
765 [label="gini = 0.0\nsamples = 88\nvalue = [0, 88]"] ;
764 -> 765 ;
766 [label="gini = 0.0\nsamples = 1\nvalue = [1, 0]"] ;
764 -> 766 ;
767 [label="gini = 0.0\nsamples = 5\nvalue = [5, 0]"] ;
763 -> 767 ;
768 [label="gini = 0.0\nsamples = 7\nvalue = [7, 0]"] ;
762 -> 768 ;
769 [label="gini = 0.0\nsamples = 10\nvalue = [10, 0]"] ;
761 -> 769 ;
770 [label="X[1666] <= 0.2751\ngini = 0.0128\nsamples = 622\nvalue = [618, 4]"] ;
2 -> 770 ;
771 [label="X[840] <= 0.0863\ngini = 0.0032\nsamples = 619\nvalue = [618, 1]"] ;
770 -> 771 ;
772 [label="gini = 0.0\nsamples = 618\nvalue = [618, 0]"] ;
771 -> 772 ;
773 [label="gini = 0.0\nsamples = 1\nvalue = [0, 1]"] ;
771 -> 773 ;
774 [label="gini = 0.0\nsamples = 3\nvalue = [0, 3]"] ;
770 -> 774 ;
775 [label="X[3263] <= 0.0327\ngini = 0.0093\nsamples = 1075\nvalue = [1070, 5]"] ;
1 -> 775 ;
776 [label="gini = 0.0\nsamples = 1070\nvalue = [1070, 0]"] ;
775 -> 776 ;
777 [label="gini = 0.0\nsamples = 5\nvalue = [0, 5]"] ;
775 -> 777 ;
778 [label="X[437] <= 0.0051\ngini = 0.1084\nsamples = 3148\nvalue = [2967, 181]"] ;
0 -> 778 [labeldistance=2.5, labelangle=-45, headlabel="False"] ;
779 [label="X[1783] <= 0.018\ngini = 0.0724\nsamples = 3083\nvalue = [2967, 116]"] ;
778 -> 779 ;
780 [label="X[3543] <= 0.0055\ngini = 0.056\nsamples = 3055\nvalue = [2967, 88]"] ;
779 -> 780 ;
781 [label="X[2537] <= 0.0288\ngini = 0.0426\nsamples = 3030\nvalue = [2964, 66]"] ;
780 -> 781 ;
782 [label="X[2110] <= 0.0281\ngini = 0.0339\nsamples = 3015\nvalue = [2963, 52]"] ;
781 -> 782 ;
783 [label="X[1580] <= 0.0745\ngini = 0.0269\nsamples = 3004\nvalue = [2963, 41]"] ;
782 -> 783 ;
784 [label="X[3538] <= 0.0473\ngini = 0.0212\nsamples = 2992\nvalue = [2960, 32]"] ;
783 -> 784 ;
785 [label="X[350] <= 0.0824\ngini = 0.0173\nsamples = 2986\nvalue = [2960, 26]"] ;
784 -> 785 ;
786 [label="X[1609] <= 0.0962\ngini = 0.0133\nsamples = 2980\nvalue = [2960, 20]"] ;
785 -> 786 ;
787 [label="X[466] <= 0.0342\ngini = 0.0087\nsamples = 2970\nvalue = [2957, 13]"] ;
786 -> 787 ;
788 [label="X[2068] <= 0.1988\ngini = 0.0061\nsamples = 2966\nvalue = [2957, 9]"] ;
787 -> 788 ;
789 [label="X[1913] <= 0.0284\ngini = 0.0047\nsamples = 2964\nvalue = [2957, 7]"] ;
788 -> 789 ;
790 [label="X[2665] <= 0.1205\ngini = 0.0034\nsamples = 2962\nvalue = [2957, 5]"] ;
789 -> 790 ;
791 [label="X[2226] <= 0.1257\ngini = 0.002\nsamples = 2960\nvalue = [2957, 3]"] ;
790 -> 791 ;
792 [label="X[3668] <= 0.1309\ngini = 0.0007\nsamples = 2958\nvalue = [2957, 1]"] ;
791 -> 792 ;
793 [label="gini = 0.0\nsamples = 2957\nvalue = [2957, 0]"] ;
792 -> 793 ;
794 [label="gini = 0.0\nsamples = 1\nvalue = [0, 1]"] ;
792 -> 794 ;
795 [label="gini = 0.0\nsamples = 2\nvalue = [0, 2]"] ;
791 -> 795 ;
796 [label="gini = 0.0\nsamples = 2\nvalue = [0, 2]"] ;
790 -> 796 ;
797 [label="gini = 0.0\nsamples = 2\nvalue = [0, 2]"] ;
789 -> 797 ;
798 [label="gini = 0.0\nsamples = 2\nvalue = [0, 2]"] ;
788 -> 798 ;
799 [label="gini = 0.0\nsamples = 4\nvalue = [0, 4]"] ;
787 -> 799 ;
800 [label="X[243] <= 0.0351\ngini = 0.42\nsamples = 10\nvalue = [3, 7]"] ;
786 -> 800 ;
801 [label="gini = 0.0\nsamples = 7\nvalue = [0, 7]"] ;
800 -> 801 ;
802 [label="gini = 0.0\nsamples = 3\nvalue = [3, 0]"] ;
800 -> 802 ;
803 [label="gini = 0.0\nsamples = 6\nvalue = [0, 6]"] ;
785 -> 803 ;
804 [label="gini = 0.0\nsamples = 6\nvalue = [0, 6]"] ;
784 -> 804 ;
805 [label="X[1188] <= 0.0331\ngini = 0.375\nsamples = 12\nvalue = [3, 9]"] ;
783 -> 805 ;
806 [label="gini = 0.0\nsamples = 9\nvalue = [0, 9]"] ;
805 -> 806 ;
807 [label="gini = 0.0\nsamples = 3\nvalue = [3, 0]"] ;
805 -> 807 ;
808 [label="gini = 0.0\nsamples = 11\nvalue = [0, 11]"] ;
782 -> 808 ;
809 [label="X[3151] <= 0.0526\ngini = 0.1244\nsamples = 15\nvalue = [1, 14]"] ;
781 -> 809 ;
810 [label="gini = 0.0\nsamples = 14\nvalue = [0, 14]"] ;
809 -> 810 ;
811 [label="gini = 0.0\nsamples = 1\nvalue = [1, 0]"] ;
809 -> 811 ;
812 [label="X[3325] <= 0.0182\ngini = 0.2112\nsamples = 25\nvalue = [3, 22]"] ;
780 -> 812 ;
813 [label="gini = 0.0\nsamples = 22\nvalue = [0, 22]"] ;
812 -> 813 ;
814 [label="gini = 0.0\nsamples = 3\nvalue = [3, 0]"] ;
812 -> 814 ;
815 [label="gini = 0.0\nsamples = 28\nvalue = [0, 28]"] ;
779 -> 815 ;
816 [label="gini = 0.0\nsamples = 65\nvalue = [0, 65]"] ;
778 -> 816 ;
}